booster[0]:
0:[y<-1.0339911] yes=1,no=2,missing=1,gain=4.61920834,cover=700
	1:[3<0.5] yes=3,no=4,missing=3,gain=23.3035946,cover=12.75
		3:leaf=-0.450000018,cover=3
		4:[x<-0.192993566] yes=7,no=8,missing=7,gain=5.58288574,cover=9.75
			7:leaf=-0.150000006,cover=1
			8:[x<0.164439738] yes=13,no=14,missing=13,gain=2.81611824,cover=8.75
				13:leaf=0.531428576,cover=7.75
				14:leaf=-0,cover=1
	2:[y<0.995497227] yes=5,no=6,missing=5,gain=2.86840868,cover=687.25
		5:[1<0.5] yes=9,no=10,missing=9,gain=33.4775162,cover=565.75
			9:[x<0.677970648] yes=15,no=16,missing=15,gain=59.6940155,cover=489.75
				15:[y<0.865381598] yes=21,no=22,missing=21,gain=32.244072,cover=414.5
					21:[0<0.5] yes=31,no=32,missing=31,gain=100.822571,cover=363.25
						31:leaf=0.159877494,cover=325.5
						32:leaf=-0.352258056,cover=37.75
					22:[0<0.5] yes=33,no=34,missing=33,gain=114.455551,cover=51.25
						33:leaf=-0.577777803,cover=26
						34:leaf=0.302857161,cover=25.25
				16:[3<0.5] yes=23,no=24,missing=23,gain=63.2365837,cover=75.25
					23:leaf=-0.578181803,cover=26.5
					24:[y<-0.568621814] yes=35,no=36,missing=35,gain=40.4808197,cover=48.75
						35:leaf=-0.541463435,cover=9.25
						36:leaf=0.125925928,cover=39.5
			10:[y<0.747300982] yes=17,no=18,missing=17,gain=149.752029,cover=76
				17:[y<0.733020663] yes=25,no=26,missing=25,gain=0.336685181,cover=40.5
					25:leaf=-0.577777803,cover=39.5
					26:leaf=-0.150000006,cover=1
				18:[x<0.599105] yes=27,no=28,missing=27,gain=61.9785385,cover=35.5
					27:leaf=-0.520000041,cover=6.5
					28:leaf=0.450000018,cover=29
		6:[3<0.5] yes=11,no=12,missing=11,gain=115.685265,cover=121.5
			11:[2<0.5] yes=19,no=20,missing=19,gain=117.134987,cover=100.5
				19:[x<-0.586729109] yes=29,no=30,missing=29,gain=14.9703598,cover=85.5
					29:[0<0.5] yes=37,no=38,missing=37,gain=30.9178772,cover=37
						37:leaf=-0.428571463,cover=2.5
						38:leaf=0.540845096,cover=34.5
					30:[x<0.514303863] yes=39,no=40,missing=39,gain=85.7200623,cover=48.5
						39:leaf=-0.5,cover=11
						40:leaf=0.420779258,cover=37.5
				20:leaf=-0.5625,cover=15
			12:leaf=-0.572727263,cover=21
booster[1]:
0:[y<-1.0339911] yes=1,no=2,missing=1,gain=2.46814418,cover=678.068237
	1:[3<0.5] yes=3,no=4,missing=3,gain=14.0000648,cover=12.0750837
		3:leaf=-0.363783985,cover=2.85310745
		4:[x<-0.176956803] yes=7,no=8,missing=7,gain=2.77077961,cover=9.22197628
			7:leaf=-0.0646582469,cover=1.22754371
			8:[x<0.164439738] yes=13,no=14,missing=13,gain=1.71520424,cover=7.99443245
				13:leaf=0.416746825,cover=6.99443245
				14:leaf=-0,cover=1
	2:[y<1.20619071] yes=5,no=6,missing=5,gain=1.80543923,cover=665.993164
		5:[2<0.5] yes=9,no=10,missing=9,gain=2.22582126,cover=661.77478
			9:[y<-0.00245380122] yes=15,no=16,missing=15,gain=29.5758419,cover=492.406738
				15:[3<0.5] yes=21,no=22,missing=21,gain=176.391052,cover=239.231522
					21:leaf=-0.474582106,cover=43.0094757
					22:[x<-0.769207597] yes=27,no=28,missing=27,gain=6.03144073,cover=196.222046
						27:leaf=0.0452578887,cover=23.598877
						28:leaf=0.209137484,cover=172.623169
				16:[3<0.5] yes=23,no=24,missing=23,gain=234.846344,cover=253.175217
					23:[y<0.737224162] yes=29,no=30,missing=29,gain=131.466095,cover=177.774216
						29:leaf=-0.441753179,cover=30.9937973
						30:leaf=0.22932525,cover=146.780426
					24:[y<0.0361191407] yes=31,no=32,missing=31,gain=11.3274994,cover=75.4009933
						31:leaf=-0.0847224817,cover=5.46861696
						32:leaf=-0.550178707,cover=69.932373
			10:[y<-0.0220957063] yes=17,no=18,missing=17,gain=167.532501,cover=169.368057
				17:leaf=-0.597041965,cover=30.0995522
				18:[y<0.784809709] yes=25,no=26,missing=25,gain=165.279907,cover=139.268509
					25:[x<-0.25653103] yes=33,no=34,missing=33,gain=73.1340942,cover=111.59597
						33:leaf=-0.567410946,cover=6.70704889
						34:leaf=0.397837102,cover=104.888924
					26:leaf=-0.472289532,cover=27.6725368
		6:[0<0.5] yes=11,no=12,missing=11,gain=0.720721006,cover=4.21833849
			11:[1<0.5] yes=19,no=20,missing=19,gain=3.75256729,cover=2.59032297
				19:leaf=-0.252011836,cover=1.15480733
				20:leaf=0.292913139,cover=1.43551564
			12:leaf=0.294055045,cover=1.6280154
booster[2]:
0:[x<0.0150788138] yes=1,no=2,missing=1,gain=1.7902317,cover=635.134338
	1:[1<0.5] yes=3,no=4,missing=3,gain=68.769249,cover=317.20813
		3:[0<0.5] yes=7,no=8,missing=7,gain=18.3396721,cover=291.085968
			7:[y<0.725327611] yes=13,no=14,missing=13,gain=77.1623993,cover=214.240005
				13:[x<-0.619599879] yes=21,no=22,missing=21,gain=29.922472,cover=181.213409
					21:[y<-0.651098549] yes=31,no=32,missing=31,gain=45.5555496,cover=57.9756432
						31:leaf=-0.575141072,cover=12.1771441
						32:leaf=0.0568553619,cover=45.7985001
					22:[y<0.104539216] yes=33,no=34,missing=33,gain=7.8980484,cover=123.237762
						33:leaf=0.108513437,cover=70.6055603
						34:leaf=0.264040649,cover=52.6321983
				14:[x<0.00443544146] yes=23,no=24,missing=23,gain=3.73814392,cover=33.0265999
					23:leaf=-0.417093188,cover=31.9533787
					24:leaf=0.0845930278,cover=1.07322073
			8:[y<0.649708629] yes=15,no=16,missing=15,gain=68.2190018,cover=76.8459702
				15:leaf=-0.403081357,cover=13.6067724
				16:[x<-0.545036077] yes=25,no=26,missing=25,gain=37.8627243,cover=63.239193
					25:[x<-0.586271405] yes=35,no=36,missing=35,gain=0.219871521,cover=59.15905
						35:leaf=0.384466827,cover=57.4902115
						36:leaf=0.132845238,cover=1.66883731
					26:leaf=-0.485503316,cover=4.08014488
		4:leaf=-0.43800959,cover=26.1221542
	2:[0<0.5] yes=5,no=6,missing=5,gain=92.0823135,cover=317.926239
		5:[1<0.5] yes=9,no=10,missing=9,gain=15.3416977,cover=287.487396
			9:[y<0.76206398] yes=17,no=18,missing=17,gain=56.6059723,cover=211.738785
				17:[x<0.655259728] yes=27,no=28,missing=27,gain=18.9339828,cover=185.030319
					27:[y<-0.634081304] yes=37,no=38,missing=37,gain=9.89406204,cover=127.474663
						37:leaf=0.206769988,cover=62.5321426
						38:leaf=0.0394977257,cover=64.9425201
					28:[y<0.030096259] yes=39,no=40,missing=39,gain=26.8364296,cover=57.5556526
						39:leaf=0.0253550522,cover=45.3848343
						40:leaf=-0.46056667,cover=12.1708193
				18:leaf=-0.401286781,cover=26.7084694
			10:[y<0.642303109] yes=19,no=20,missing=19,gain=61.9409561,cover=75.7486038
				19:leaf=-0.380525559,cover=14.6830759
				20:[x<0.482781231] yes=29,no=30,missing=29,gain=22.4927711,cover=61.0655251
					29:leaf=-0.401534051,cover=3.18845773
					30:[y<0.965872169] yes=41,no=42,missing=41,gain=2.04132843,cover=57.8770676
						41:leaf=0.236536488,cover=21.4329491
						42:leaf=0.380893558,cover=36.4441185
		6:[y<0.827246726] yes=11,no=12,missing=11,gain=1.31132507,cover=30.4388466
			11:leaf=-0.404747874,cover=19.5630035
			12:leaf=-0.623609304,cover=10.8758411
booster[3]:
0:[x<0.956952929] yes=1,no=2,missing=1,gain=2.10982895,cover=586.156555
	1:[y<-1.00943112] yes=3,no=4,missing=3,gain=2.14699173,cover=576.262573
		3:[3<0.5] yes=7,no=8,missing=7,gain=13.28265,cover=16.0046749
			7:leaf=-0.334328115,cover=3.77220559
			8:[x<-0.4985618] yes=13,no=14,missing=13,gain=7.49423122,cover=12.2324696
				13:leaf=-0.273805708,cover=1.36911166
				14:[x<0.201344594] yes=21,no=22,missing=21,gain=4.32808971,cover=10.8633575
					21:leaf=0.398639977,cover=9.65795803
					22:leaf=-0.121005379,cover=1.20539916
		4:[x<-0.934151649] yes=9,no=10,missing=9,gain=2.21235418,cover=560.257935
			9:[y<-0.20397073] yes=15,no=16,missing=15,gain=8.29402542,cover=17.8919086
				15:leaf=-0.333715856,cover=2.46941352
				16:[y<0.0781776309] yes=23,no=24,missing=23,gain=10.3100853,cover=15.4224958
					23:leaf=0.445245206,cover=6.30980253
					24:[0<0.5] yes=31,no=32,missing=31,gain=8.26672173,cover=9.11269379
						31:leaf=-0.333434403,cover=3.63386512
						32:leaf=0.191635117,cover=5.47882843
			10:[2<0.5] yes=17,no=18,missing=17,gain=2.75241518,cover=542.365967
				17:[x<-0.161311001] yes=25,no=26,missing=25,gain=23.8906364,cover=398.198151
					25:[1<0.5] yes=33,no=34,missing=33,gain=37.4357414,cover=145.628555
						33:leaf=0.124092929,cover=131.811417
						34:leaf=-0.379061252,cover=13.8171282
					26:[x<0.122711971] yes=35,no=36,missing=35,gain=84.9089355,cover=252.569611
						35:leaf=-0.358247072,cover=69.342804
						36:leaf=0.0293561332,cover=183.226807
				18:[y<0.000765400007] yes=27,no=28,missing=27,gain=89.5772781,cover=144.167831
					27:leaf=-0.468560725,cover=25.9238529
					28:[y<0.784809709] yes=37,no=38,missing=37,gain=64.4676514,cover=118.24398
						37:leaf=0.233441919,cover=99.581955
						38:leaf=-0.361464053,cover=18.6620235
	2:[0<0.5] yes=5,no=6,missing=5,gain=3.71080756,cover=9.89398384
		5:[y<-0.379709721] yes=11,no=12,missing=11,gain=4.19418716,cover=8.84268761
			11:leaf=-0.2183301,cover=1.10327268
			12:[y<0.381195486] yes=19,no=20,missing=19,gain=1.11490631,cover=7.73941469
				19:leaf=0.393090576,cover=3.35661459
				20:[1<0.5] yes=29,no=30,missing=29,gain=2.90568161,cover=4.3828001
					29:leaf=-0.197394013,cover=1.01443434
					30:[y<0.948061109] yes=39,no=40,missing=39,gain=0.136468172,cover=3.36836553
						39:leaf=0.0636954457,cover=1.02059579
						40:leaf=0.287265569,cover=2.34776974
		6:leaf=-0.256063491,cover=1.05129647
booster[4]:
0:[y<-0.853461504] yes=1,no=2,missing=1,gain=4.13663244,cover=556.44873
	1:[3<0.5] yes=3,no=4,missing=3,gain=56.8777695,cover=91.6844254
		3:leaf=-0.378656507,cover=20.071104
		4:[x<0.452339232] yes=7,no=8,missing=7,gain=44.7923698,cover=71.6133194
			7:[x<-0.548572421] yes=13,no=14,missing=13,gain=39.1888962,cover=64.3526306
				13:leaf=-0.438791037,cover=5.65258312
				14:[x<-0.112573326] yes=21,no=22,missing=21,gain=0.881729126,cover=58.7000427
					21:leaf=0.425170124,cover=14.7787228
					22:[x<0.0788088441] yes=33,no=34,missing=33,gain=1.81811142,cover=43.9213219
						33:leaf=0.20854035,cover=19.4368515
						34:leaf=0.357059747,cover=24.4844704
			8:leaf=-0.481956691,cover=7.26069117
	2:[3<0.5] yes=5,no=6,missing=5,gain=14.1609459,cover=464.764343
		5:[y<-0.000461183692] yes=9,no=10,missing=9,gain=70.9344025,cover=283.92572
			9:leaf=-0.37931028,cover=32.8786392
			10:[x<0.144463152] yes=15,no=16,missing=15,gain=10.0060234,cover=251.047089
				15:[1<0.5] yes=23,no=24,missing=23,gain=43.7091064,cover=168.378174
					23:[x<-0.121372961] yes=35,no=36,missing=35,gain=13.6530342,cover=154.011795
						35:leaf=0.0787174925,cover=74.941124
						36:leaf=0.258387089,cover=79.0706711
					24:leaf=-0.35946244,cover=14.3663864
				16:[1<0.5] yes=25,no=26,missing=25,gain=82.3833771,cover=82.6689148
					25:[x<0.169762403] yes=37,no=38,missing=37,gain=8.14463806,cover=27.885334
						37:leaf=0.030649526,cover=3.17144489
						38:leaf=-0.469661355,cover=24.7138882
					26:[y<0.747300982] yes=39,no=40,missing=39,gain=13.9898815,cover=54.7835808
						39:leaf=-0.24586314,cover=4.71704435
						40:leaf=0.257483423,cover=50.0665359
		6:[y<0.0361191407] yes=11,no=12,missing=11,gain=104.471497,cover=180.838593
			11:[x<-0.390556872] yes=17,no=18,missing=17,gain=19.9198761,cover=126.796425
				17:[x<-0.769207597] yes=27,no=28,missing=27,gain=3.71157455,cover=46.1273003
					27:[y<-0.440897226] yes=41,no=42,missing=41,gain=25.9979153,cover=20.2719383
						41:leaf=-0.500971735,cover=3.85112214
						42:leaf=0.286612332,cover=16.4208164
					28:[y<-0.467370033] yes=43,no=44,missing=43,gain=2.54082489,cover=25.85536
						43:leaf=0.34443593,cover=20.9998207
						44:leaf=0.0831946507,cover=4.85553932
				18:[x<0.357065231] yes=29,no=30,missing=29,gain=88.7463837,cover=80.6691284
					29:[y<-0.841406822] yes=45,no=46,missing=45,gain=13.8050919,cover=20.8875504
						45:leaf=0.137025326,cover=2.09801579
						46:leaf=-0.615957141,cover=18.7895336
					30:[x<0.436739326] yes=47,no=48,missing=47,gain=2.4581871,cover=59.7815742
						47:leaf=-0.0126084303,cover=6.04042244
						48:leaf=0.187050715,cover=53.7411537
			12:[x<0.976059258] yes=19,no=20,missing=19,gain=0.894691467,cover=54.0421753
				19:[y<0.867258906] yes=31,no=32,missing=31,gain=0.0541534424,cover=52.9961929
					31:leaf=-0.472055256,cover=30.4946899
					32:leaf=-0.354467779,cover=22.5015049
				20:leaf=-0.0684846714,cover=1.04597926
booster[5]:
0:[y<-0.752691269] yes=1,no=2,missing=1,gain=2.6141088,cover=500.498718
	1:[3<0.5] yes=3,no=4,missing=3,gain=48.1413307,cover=106.39698
		3:leaf=-0.350675821,cover=21.7632027
		4:[x<0.523235619] yes=7,no=8,missing=7,gain=31.5388031,cover=84.6337814
			7:[x<-0.588167906] yes=13,no=14,missing=13,gain=31.6955032,cover=77.7396088
				13:leaf=-0.396673828,cover=6.5124321
				14:[x<-0.147596896] yes=21,no=22,missing=21,gain=3.592453,cover=71.2271805
					21:leaf=0.3801516,cover=16.7623215
					22:[x<0.0788088441] yes=33,no=34,missing=33,gain=4.89060402,cover=54.464859
						33:leaf=0.0974141136,cover=22.5795612
						34:leaf=0.285081208,cover=31.8852978
			8:leaf=-0.434987277,cover=6.89416695
	2:[3<0.5] yes=5,no=6,missing=5,gain=14.5347452,cover=394.101746
		5:[y<0.000765400007] yes=9,no=10,missing=9,gain=36.8462372,cover=249.911926
			9:leaf=-0.341726214,cover=21.0933647
			10:[x<0.144463152] yes=15,no=16,missing=15,gain=5.35214901,cover=228.818573
				15:[1<0.5] yes=23,no=24,missing=23,gain=27.1135006,cover=156.830368
					23:[x<-0.121372961] yes=35,no=36,missing=35,gain=8.69319344,cover=145.344345
						35:leaf=0.056764137,cover=73.4430695
						36:leaf=0.204078496,cover=71.9012756
					24:leaf=-0.330860823,cover=11.4860239
				16:[1<0.5] yes=25,no=26,missing=25,gain=50.4877739,cover=71.9881973
					25:[x<0.177869305] yes=37,no=38,missing=37,gain=5.97473907,cover=23.9513321
						37:leaf=-0.00360386749,cover=3.7953074
						38:leaf=-0.413337439,cover=20.1560249
					26:[x<0.58266747] yes=39,no=40,missing=39,gain=8.77804565,cover=48.0368614
						39:leaf=-0.271537453,cover=2.88409925
						40:leaf=0.206695914,cover=45.1527634
		6:[y<0.00212191697] yes=11,no=12,missing=11,gain=60.3927765,cover=144.189804
			11:[x<-0.53732127] yes=17,no=18,missing=17,gain=10.8461819,cover=95.2621765
				17:[x<-0.769207597] yes=27,no=28,missing=27,gain=1.18592167,cover=33.4927444
					27:[y<-0.440897226] yes=41,no=42,missing=41,gain=12.535532,cover=16.6560116
						41:leaf=-0.391290963,cover=2.66026235
						42:leaf=0.2314035,cover=13.9957485
					28:[x<-0.64295578] yes=43,no=44,missing=43,gain=2.57144833,cover=16.8367329
						43:leaf=0.338932604,cover=9.41125298
						44:leaf=0.0909657627,cover=7.42547941
				18:[x<0.484867156] yes=29,no=30,missing=29,gain=50.1003723,cover=61.7694321
					29:[x<-0.433444947] yes=45,no=46,missing=45,gain=4.63611221,cover=18.2056293
						45:leaf=0.03337612,cover=1.63304555
						46:leaf=-0.47576192,cover=16.5725842
					30:[y<-0.744109929] yes=47,no=48,missing=47,gain=2.87719727,cover=43.5638008
						47:leaf=-0.18774724,cover=1.39209163
						48:leaf=0.1641348,cover=42.171711
			12:[x<0.965491176] yes=19,no=20,missing=19,gain=5.61558533,cover=48.9276314
				19:[x<-0.965597034] yes=31,no=32,missing=31,gain=3.6884613,cover=47.0121956
					31:leaf=0.0640508533,cover=1.37671494
					32:leaf=-0.392953217,cover=45.6354828
				20:leaf=0.100676373,cover=1.91543555
booster[6]:
0:[y<-0.860529184] yes=1,no=2,missing=1,gain=1.92827725,cover=448.255371
	1:[3<0.5] yes=3,no=4,missing=3,gain=24.4411335,cover=67.4352112
		3:leaf=-0.322541147,cover=12.5099516
		4:[x<0.418500841] yes=7,no=8,missing=7,gain=19.9107037,cover=54.9252548
			7:[x<-0.548572421] yes=13,no=14,missing=13,gain=16.3108444,cover=48.6165848
				13:leaf=-0.320013642,cover=4.1989851
				14:[x<-0.143265009] yes=23,no=24,missing=23,gain=0.448331833,cover=44.4176025
					23:leaf=0.334765762,cover=8.42230511
					24:[y<-0.990185618] yes=33,no=34,missing=33,gain=0.224039078,cover=35.9952965
						33:leaf=0.142412737,cover=8.85408783
						34:leaf=0.238154337,cover=27.1412086
			8:[y<-0.885356605] yes=15,no=16,missing=15,gain=0.942332268,cover=6.308671
				15:leaf=-0.386269957,cover=5.18178368
				16:leaf=-0.0433421284,cover=1.12688732
	2:[3<0.5] yes=5,no=6,missing=5,gain=4.72469187,cover=380.82016
		5:[y<-0.000461183692] yes=9,no=10,missing=9,gain=31.057682,cover=232.410019
			9:leaf=-0.329641134,cover=20.6981144
			10:[x<0.144463152] yes=17,no=18,missing=17,gain=2.9972806,cover=211.711899
				17:[1<0.5] yes=25,no=26,missing=25,gain=17.1772633,cover=148.265808
					25:[x<-0.121372961] yes=35,no=36,missing=35,gain=5.1612854,cover=139.194443
						35:leaf=0.0407034382,cover=72.3232651
						36:leaf=0.156656101,cover=66.8711777
					26:leaf=-0.309135228,cover=9.07136536
				18:[1<0.5] yes=27,no=28,missing=27,gain=31.1899033,cover=63.446106
					27:[x<0.177869305] yes=37,no=38,missing=37,gain=4.73512268,cover=20.1585712
						37:leaf=-0.00274614128,cover=3.79826188
						38:leaf=-0.373266369,cover=16.3603096
					28:[y<0.747300982] yes=39,no=40,missing=39,gain=8.18439198,cover=43.2875328
						39:leaf=-0.224288344,cover=4.23171282
						40:leaf=0.179551527,cover=39.0558205
		6:[y<0.0361191407] yes=11,no=12,missing=11,gain=45.4928894,cover=148.410126
			11:[x<-0.354354709] yes=19,no=20,missing=19,gain=7.86665726,cover=112.887032
				19:[x<-0.523782074] yes=29,no=30,missing=29,gain=1.66171932,cover=38.882431
					29:[y<-0.791956007] yes=41,no=42,missing=41,gain=3.61201477,cover=33.7535248
						41:leaf=-0.257030964,cover=1.32682025
						42:leaf=0.137057438,cover=32.4267044
					30:leaf=0.295325041,cover=5.12890482
				20:[x<0.22931385] yes=31,no=32,missing=31,gain=34.8356781,cover=74.0046005
					31:[x<-0.294747829] yes=43,no=44,missing=43,gain=2.65847588,cover=16.3370876
						43:leaf=-0.00494893128,cover=1.47775102
						44:leaf=-0.42904377,cover=14.8593369
					32:[y<-0.103476867] yes=45,no=46,missing=45,gain=2.7427206,cover=57.6675148
						45:leaf=0.111972198,cover=52.2854919
						46:leaf=-0.0995349213,cover=5.3820219
			12:[x<0.976059258] yes=21,no=22,missing=21,gain=0.397987366,cover=35.523098
				21:leaf=-0.353246987,cover=34.4618759
				22:leaf=-0.0729146823,cover=1.06122422
booster[7]:
0:[y<-0.634081304] yes=1,no=2,missing=1,gain=1.39673173,cover=404.861877
	1:[3<0.5] yes=3,no=4,missing=3,gain=27.3166733,cover=103.332909
		3:leaf=-0.315445274,cover=16.9463177
		4:[x<0.629634738] yes=7,no=8,missing=7,gain=24.1603336,cover=86.3865967
			7:[x<-0.640231848] yes=13,no=14,missing=13,gain=17.8045769,cover=79.2551651
				13:leaf=-0.340068072,cover=5.52047348
				14:[x<-0.147596896] yes=21,no=22,missing=21,gain=3.67030144,cover=73.7346954
					21:[y<-0.653719187] yes=31,no=32,missing=31,gain=0.134389877,cover=17.5280399
						31:leaf=0.309393585,cover=16.2502308
						32:leaf=0.0898574218,cover=1.27780867
					22:[x<0.0824328512] yes=33,no=34,missing=33,gain=4.98468208,cover=56.2066536
						33:leaf=0.0244594011,cover=21.872385
						34:leaf=0.207933545,cover=34.3342667
			8:leaf=-0.403761089,cover=7.13142872
	2:[3<0.5] yes=5,no=6,missing=5,gain=9.71745014,cover=301.528961
		5:[y<-0.000461183692] yes=9,no=10,missing=9,gain=11.6767244,cover=205.6577
			9:leaf=-0.299923003,cover=8.88184929
			10:[x<-0.614011526] yes=15,no=16,missing=15,gain=2.21971631,cover=196.775848
				15:[0<0.5] yes=23,no=24,missing=23,gain=48.6204109,cover=58.2937355
					23:leaf=-0.419922382,cover=12.521616
					24:[y<0.649708629] yes=35,no=36,missing=35,gain=12.0388718,cover=45.7721176
						35:leaf=-0.310103208,cover=2.69800687
						36:leaf=0.2663486,cover=43.0741119
				16:[0<0.5] yes=25,no=26,missing=25,gain=35.4665222,cover=138.482117
					25:[x<-0.174791083] yes=37,no=38,missing=37,gain=18.8657627,cover=119.405823
						37:leaf=-0.383825749,cover=6.61012936
						38:leaf=0.104858778,cover=112.7957
					26:[x<-0.56674552] yes=39,no=40,missing=39,gain=6.70583725,cover=19.076292
						39:leaf=0.157425269,cover=1.57908177
						40:leaf=-0.408199936,cover=17.4972115
		6:[y<0.0361191407] yes=11,no=12,missing=11,gain=23.9982777,cover=95.871254
			11:[x<0.605089903] yes=17,no=18,missing=17,gain=10.7587376,cover=67.9689941
				17:[x<-0.593844771] yes=27,no=28,missing=27,gain=42.7730141,cover=37.552681
					27:[x<-0.777054608] yes=41,no=42,missing=41,gain=2.19232798,cover=23.5183258
						41:leaf=0.0643429458,cover=14.8657532
						42:leaf=0.254329175,cover=8.65257263
					28:[y<-0.582025886] yes=43,no=44,missing=43,gain=0.0196418762,cover=14.0343533
						43:leaf=-0.156997785,cover=1.10260642
						44:leaf=-0.517863333,cover=12.9317465
				18:[y<-0.320759237] yes=29,no=30,missing=29,gain=2.49620914,cover=30.416317
					29:[x<0.847941518] yes=45,no=46,missing=45,gain=17.6397018,cover=16.7155437
						45:leaf=0.171166196,cover=14.7914762
						46:leaf=-0.631556034,cover=1.9240675
					30:[x<0.798992038] yes=47,no=48,missing=47,gain=9.52267933,cover=13.7007723
						47:leaf=-0.345796704,cover=1.48310673
						48:leaf=0.311463624,cover=12.2176657
			12:[x<0.976059258] yes=19,no=20,missing=19,gain=0.393455505,cover=27.9022579
				19:leaf=-0.333106279,cover=26.8757572
				20:leaf=-0.0628958121,cover=1.02650046
booster[8]:
0:[y<-1.00943112] yes=1,no=2,missing=1,gain=1.37368298,cover=361.215118
	1:[x<0.249546111] yes=3,no=4,missing=3,gain=3.72172022,cover=7.85616732
		3:[x<-0.174820736] yes=7,no=8,missing=7,gain=1.09612679,cover=6.7711072
			7:leaf=-0.0541138649,cover=1.00598598
			8:leaf=0.237513334,cover=5.76512098
		4:leaf=-0.265425295,cover=1.08506036
	2:[y<-0.990174711] yes=5,no=6,missing=5,gain=1.85954118,cover=353.358978
		5:[x<-0.00273440545] yes=9,no=10,missing=9,gain=0.0525662899,cover=4.11883831
			9:leaf=-0.0771501958,cover=1.7740407
			10:leaf=-0.230684921,cover=2.34479761
		6:[y<-0.967715263] yes=11,no=12,missing=11,gain=2.49724197,cover=349.240112
			11:[3<0.5] yes=13,no=14,missing=13,gain=3.09693742,cover=7.13153601
				13:leaf=-0.181421489,cover=1.23190415
				14:[x<0.136968404] yes=17,no=18,missing=17,gain=0.767353058,cover=5.89963198
					17:[x<-0.103335381] yes=23,no=24,missing=23,gain=0.398935795,cover=4.84366035
						23:leaf=0.0751475394,cover=1.42939901
						24:leaf=0.333003044,cover=3.41426134
					18:leaf=0.00250696111,cover=1.05597138
			12:[x<-0.934151649] yes=15,no=16,missing=15,gain=1.48190153,cover=342.108582
				15:[2<0.5] yes=19,no=20,missing=19,gain=1.76065028,cover=10.8067169
					19:[y<0.0781776309] yes=25,no=26,missing=25,gain=1.07367873,cover=9.79189205
						25:leaf=0.222031265,cover=4.71810484
						26:leaf=0.0264170915,cover=5.07378769
					20:leaf=-0.180161834,cover=1.01482403
				16:[y<0.993905306] yes=21,no=22,missing=21,gain=1.32660449,cover=331.30188
					21:[x<-0.827717543] yes=27,no=28,missing=27,gain=2.50309777,cover=279.24234
						27:leaf=-0.12632291,cover=19.7752628
						28:leaf=-0.0179547258,cover=259.467072
					22:[2<0.5] yes=29,no=30,missing=29,gain=10.6507072,cover=52.0595322
						29:leaf=0.0773148537,cover=45.9005737
						30:leaf=-0.315673798,cover=6.15895796
booster[9]:
0:[x<0.956952929] yes=1,no=2,missing=1,gain=1.05832326,cover=358.009766
	1:[x<0.135620743] yes=3,no=4,missing=3,gain=1.09401202,cover=352.083405
		3:[1<0.5] yes=7,no=8,missing=7,gain=9.4523592,cover=222.385834
			7:[y<-0.952754498] yes=15,no=16,missing=15,gain=2.36307335,cover=213.919556
				15:[x<-0.339437693] yes=21,no=22,missing=21,gain=3.6380198,cover=16.0467854
					21:leaf=-0.21209991,cover=1.69519734
					22:[3<0.5] yes=29,no=30,missing=29,gain=3.1076045,cover=14.3515882
						29:leaf=-0.184061393,cover=1.20812118
						30:leaf=0.217580214,cover=13.1434679
				16:[3<0.5] yes=23,no=24,missing=23,gain=5.70714474,cover=197.872772
					23:[y<-0.0248215776] yes=31,no=32,missing=31,gain=12.518404,cover=127.64801
						31:leaf=-0.292260736,cover=8.26594353
						32:leaf=0.069923304,cover=119.382072
					24:[y<0.0369701125] yes=33,no=34,missing=33,gain=12.8347855,cover=70.2247543
						33:leaf=0.00330588175,cover=56.5627785
						34:leaf=-0.311607361,cover=13.6619749
			8:leaf=-0.29035151,cover=8.46627522
		4:[2<0.5] yes=9,no=10,missing=9,gain=7.18883657,cover=129.697571
			9:[0<0.5] yes=17,no=18,missing=17,gain=8.30444908,cover=115.999168
				17:[y<-0.947507501] yes=25,no=26,missing=25,gain=3.19252062,cover=108.767975
					25:[x<0.311369658] yes=35,no=36,missing=35,gain=4.13281155,cover=5.87776327
						35:leaf=0.0531768166,cover=3.17103481
						36:leaf=-0.398902088,cover=2.7067287
					26:[y<-0.777920008] yes=37,no=38,missing=37,gain=4.02490902,cover=102.890213
						37:leaf=0.157846451,cover=16.894495
						38:leaf=0.00144655828,cover=85.9957123
				18:leaf=-0.297005385,cover=7.2311945
			10:[x<0.17035383] yes=19,no=20,missing=19,gain=4.50828457,cover=13.69841
				19:[y<0.0922836438] yes=27,no=28,missing=27,gain=0.697530985,cover=3.78440785
					27:leaf=-0.0955053344,cover=1.28011298
					28:[y<0.191690058] yes=39,no=40,missing=39,gain=1.29611742,cover=2.50429487
						39:leaf=0.244232953,cover=1.50235081
						40:leaf=-0.094872199,cover=1.00194395
				20:leaf=-0.32729423,cover=9.91400242
	2:[y<0.381195486] yes=5,no=6,missing=5,gain=0.744056106,cover=5.9263711
		5:[y<-0.0580772907] yes=11,no=12,missing=11,gain=0.215403438,cover=3.09376574
			11:leaf=0.0379103161,cover=1.1290282
			12:leaf=0.23587887,cover=1.96473753
		6:[1<0.5] yes=13,no=14,missing=13,gain=1.11055982,cover=2.8326056
			13:leaf=-0.176218808,cover=1.00778818
			14:leaf=0.115668155,cover=1.82481742
booster[10]:
0:[x<-0.682555795] yes=1,no=2,missing=1,gain=0.749506831,cover=340.735046
	1:[2<0.5] yes=3,no=4,missing=3,gain=17.2273788,cover=71.3364182
		3:[y<-0.547411442] yes=7,no=8,missing=7,gain=10.9878511,cover=63.369976
			7:leaf=-0.292932719,cover=5.69771099
			8:[y<0.735611558] yes=13,no=14,missing=13,gain=2.87012577,cover=57.6722641
				13:[y<0.0157257989] yes=21,no=22,missing=21,gain=8.31484985,cover=24.3824062
					21:[x<-0.777054608] yes=33,no=34,missing=33,gain=2.12554646,cover=17.8355122
						33:leaf=0.0670230463,cover=13.1843805
						34:leaf=0.294778436,cover=4.65113163
					22:[x<-0.965597034] yes=35,no=36,missing=35,gain=1.99626541,cover=6.5468936
						35:leaf=0.0770231858,cover=1.12810755
						36:leaf=-0.300700098,cover=5.41878605
				14:[0<0.5] yes=23,no=24,missing=23,gain=7.26129818,cover=33.289856
					23:leaf=-0.233434364,cover=2.82746029
					24:[x<-0.878682017] yes=37,no=38,missing=37,gain=1.08217239,cover=30.4623966
						37:leaf=0.101988055,cover=8.21219158
						38:leaf=0.248465225,cover=22.250206
		4:leaf=-0.370714456,cover=7.96644163
	2:[0<0.5] yes=5,no=6,missing=5,gain=12.5975437,cover=269.398651
		5:[x<-0.545596242] yes=9,no=10,missing=9,gain=3.39741063,cover=246.802582
			9:[y<-0.476732135] yes=15,no=16,missing=15,gain=9.91596508,cover=11.8794098
				15:[x<-0.629482865] yes=25,no=26,missing=25,gain=1.502213,cover=6.7699914
					25:[y<-0.569507897] yes=39,no=40,missing=39,gain=1.48409343,cover=3.22094893
						39:leaf=-0.169984668,cover=2.17960644
						40:leaf=0.160316676,cover=1.0413425
					26:[y<-0.631128311] yes=41,no=42,missing=41,gain=0.16692853,cover=3.54904246
						41:leaf=0.240046456,cover=2.50360966
						42:leaf=0.0444170535,cover=1.04543269
				16:leaf=-0.423898757,cover=5.10941792
			10:[y<0.714718759] yes=17,no=18,missing=17,gain=3.08272743,cover=234.923172
				17:[1<0.5] yes=27,no=28,missing=27,gain=7.99728394,cover=182.326492
					27:[y<0.0716657043] yes=43,no=44,missing=43,gain=5.98622274,cover=175.15535
						43:leaf=0.0067885085,cover=119.941231
						44:leaf=0.125492275,cover=55.2141228
					28:[y<0.532389998] yes=45,no=46,missing=45,gain=0.386896133,cover=7.17114353
						45:leaf=-0.285393059,cover=6.11842203
						46:leaf=-0.0416831374,cover=1.05272174
				18:[x<0.630049884] yes=29,no=30,missing=29,gain=22.1075306,cover=52.5966797
					29:[y<0.740382195] yes=47,no=48,missing=47,gain=2.18067551,cover=19.2938499
						47:leaf=-0.0215450339,cover=2.42486238
						48:leaf=-0.334119618,cover=16.868988
					30:[1<0.5] yes=49,no=50,missing=49,gain=6.22261524,cover=33.3028297
						49:leaf=-0.248369053,cover=3.25427294
						50:leaf=0.141687185,cover=30.0485554
		6:[x<-0.56674552] yes=11,no=12,missing=11,gain=14.688097,cover=22.5960522
			11:[x<-0.674546242] yes=19,no=20,missing=19,gain=0.797297955,cover=5.69961119
				19:leaf=-0.0394660234,cover=1.02899778
				20:[y<1.06844568] yes=31,no=32,missing=31,gain=0.175094366,cover=4.67061329
					31:leaf=0.24342376,cover=3.62833858
					32:leaf=0.0461227857,cover=1.04227471
			12:leaf=-0.35992533,cover=16.8964424
booster[11]:
0:[y<-0.59334594] yes=1,no=2,missing=1,gain=0.901410699,cover=316.461945
	1:[x<0.655259728] yes=3,no=4,missing=3,gain=15.623455,cover=85.4935837
		3:[3<0.5] yes=7,no=8,missing=7,gain=12.0854053,cover=78.0200272
			7:leaf=-0.281915545,cover=7.42514801
			8:[x<-0.710428059] yes=13,no=14,missing=13,gain=6.67543507,cover=70.5948792
				13:leaf=-0.279335797,cover=3.06425834
				14:[x<-0.147596896] yes=21,no=22,missing=21,gain=3.56728172,cover=67.5306244
					21:[x<-0.640231848] yes=31,no=32,missing=31,gain=1.0987072,cover=15.9160566
						31:leaf=-0.0111920843,cover=1.35183406
						32:leaf=0.262798637,cover=14.5642223
					22:[x<0.151427537] yes=33,no=34,missing=33,gain=4.54321957,cover=51.6145668
						33:leaf=-0.0204709657,cover=23.075779
						34:leaf=0.156393588,cover=28.5387878
		4:leaf=-0.369462997,cover=7.47355652
	2:[3<0.5] yes=5,no=6,missing=5,gain=4.4867754,cover=230.968353
		5:[y<0.000765400007] yes=9,no=10,missing=9,gain=4.72640896,cover=157.026077
			9:leaf=-0.249672964,cover=5.03757954
			10:[x<-0.121372961] yes=15,no=16,missing=15,gain=1.48971295,cover=151.98851
				15:[0<0.5] yes=23,no=24,missing=23,gain=21.2349854,cover=54.9821167
					23:[x<-0.181764245] yes=35,no=36,missing=35,gain=4.10083199,cover=17.753067
						35:leaf=-0.373567164,cover=11.9742212
						36:leaf=-0.0580647439,cover=5.77884626
					24:[x<-0.545036077] yes=37,no=38,missing=37,gain=7.13377094,cover=37.2290497
						37:leaf=0.147890434,cover=34.736454
						38:leaf=-0.305456907,cover=2.49259567
				16:[0<0.5] yes=25,no=26,missing=25,gain=15.5979481,cover=97.0063858
					25:[x<0.144463152] yes=39,no=40,missing=39,gain=5.60965014,cover=88.6782608
						39:leaf=0.149598703,cover=47.9634666
						40:leaf=-0.0010775401,cover=40.7147942
					26:leaf=-0.326700687,cover=8.32812309
		6:[y<0.0361191407] yes=11,no=12,missing=11,gain=12.2463551,cover=73.9422684
			11:[x<0.611462355] yes=17,no=18,missing=17,gain=7.36247921,cover=57.271431
				17:[x<-0.638803065] yes=27,no=28,missing=27,gain=25.3558369,cover=30.6635227
					27:[x<-0.777054608] yes=41,no=42,missing=41,gain=1.82825828,cover=18.6807652
						41:leaf=0.0443145037,cover=13.5889778
						42:leaf=0.246624514,cover=5.09178782
					28:leaf=-0.432300001,cover=11.9827566
				18:[y<-0.320759237] yes=29,no=30,missing=29,gain=1.3894937,cover=26.6079082
					29:[x<0.847941518] yes=43,no=44,missing=43,gain=10.3108845,cover=14.4619608
						43:leaf=0.150500268,cover=12.2467384
						44:leaf=-0.448778152,cover=2.2152226
					30:[x<0.798992038] yes=45,no=46,missing=45,gain=6.13855219,cover=12.1459465
						45:leaf=-0.260039508,cover=1.65587246
						46:leaf=0.258688062,cover=10.4900742
			12:[x<0.950276792] yes=19,no=20,missing=19,gain=0.167640686,cover=16.6708412
				19:leaf=-0.306454659,cover=15.6026716
				20:leaf=-0.0751238689,cover=1.06816912
booster[12]:
0:[y<1.10804296] yes=1,no=2,missing=1,gain=1.0847466,cover=287.855804
	1:[y<1.09873867] yes=3,no=4,missing=3,gain=2.38700867,cover=276.476013
		3:[y<1.0543735] yes=7,no=8,missing=7,gain=1.68193865,cover=274.310394
			7:[y<1.02947032] yes=11,no=12,missing=11,gain=2.02082014,cover=265.781525
				11:[y<0.993905306] yes=17,no=18,missing=17,gain=2.47809196,cover=259.274933
					17:[y<0.877100646] yes=25,no=26,missing=25,gain=2.61127853,cover=248.79071
						25:leaf=-0.00542223873,cover=219.224686
						26:leaf=-0.0990519822,cover=29.5660267
					18:[1<0.5] yes=27,no=28,missing=27,gain=1.85668707,cover=10.4842119
						27:leaf=0.00134654716,cover=5.58043337
						28:leaf=0.242936566,cover=4.90377808
				12:[x<-0.510264397] yes=19,no=20,missing=19,gain=3.16890669,cover=6.50660038
					19:[x<-0.818478405] yes=29,no=30,missing=29,gain=0.393371999,cover=2.29254389
						29:leaf=-0.0301768873,cover=1.11050117
						30:leaf=0.167275727,cover=1.1820426
					20:[x<0.814516246] yes=31,no=32,missing=31,gain=2.99887037,cover=4.21405649
						31:leaf=-0.442351371,cover=2.76677561
						32:leaf=0.0403993614,cover=1.44728088
			8:[x<-0.545888364] yes=13,no=14,missing=13,gain=0.849392533,cover=8.52887535
				13:leaf=0.2247594,cover=2.77336645
				14:[1<0.5] yes=21,no=22,missing=21,gain=3.73675919,cover=5.75550842
					21:leaf=-0.229770198,cover=2.04418588
					22:[x<0.769553065] yes=33,no=34,missing=33,gain=0.41988039,cover=3.71132255
						33:leaf=0.0158381518,cover=1.06646919
						34:leaf=0.246074602,cover=2.64485335
		4:leaf=-0.272891253,cover=2.16560507
	2:[2<0.5] yes=5,no=6,missing=5,gain=1.95722139,cover=11.3797865
		5:[x<0.891816735] yes=9,no=10,missing=9,gain=1.96718776,cover=10.1023827
			9:[x<-0.589750409] yes=15,no=16,missing=15,gain=0.523085594,cover=9.04652309
				15:leaf=0.239894375,cover=4.31640673
				16:[x<0.501198411] yes=23,no=24,missing=23,gain=3.04619813,cover=4.73011637
					23:leaf=-0.212126389,cover=1.35793352
					24:leaf=0.214763418,cover=3.37218261
			10:leaf=-0.164052576,cover=1.05586004
		6:leaf=-0.186006442,cover=1.27740324
booster[13]:
0:[y<-1.02289152] yes=1,no=2,missing=1,gain=0.985264421,cover=285.698303
	1:[x<0.0603512824] yes=3,no=4,missing=3,gain=0.263911426,cover=4.09822655
		3:leaf=0.157562599,cover=3.09776974
		4:leaf=-0.00734784501,cover=1.00045681
	2:[y<-0.990174711] yes=5,no=6,missing=5,gain=1.06754231,cover=281.600098
		5:[x<-0.00273440545] yes=7,no=8,missing=7,gain=0.619626284,cover=4.77099991
			7:[x<-0.0900660977] yes=11,no=12,missing=11,gain=1.67550611,cover=2.27121401
				11:leaf=-0.196457699,cover=1.12885034
				12:leaf=0.179439038,cover=1.14236367
			8:leaf=-0.216377348,cover=2.49978614
		6:[y<-0.967715263] yes=9,no=10,missing=9,gain=1.7966814,cover=276.829071
			9:[x<-0.103335381] yes=13,no=14,missing=13,gain=0.60059607,cover=5.03960943
				13:leaf=-0.0134622743,cover=1.32653391
				14:[x<0.134265721] yes=17,no=18,missing=17,gain=0.399247408,cover=3.7130754
					17:leaf=0.25360617,cover=2.63968325
					18:leaf=0.0221001394,cover=1.07339215
			10:[x<-0.934151649] yes=15,no=16,missing=15,gain=0.968701959,cover=271.78949
				15:[y<0.0781776309] yes=19,no=20,missing=19,gain=1.35916781,cover=8.22816086
					19:[y<-0.122824818] yes=23,no=24,missing=23,gain=0.631106138,cover=3.86354542
						23:leaf=-0.00572499586,cover=1.04927397
						24:leaf=0.251690328,cover=2.81427145
					20:[x<-0.991226912] yes=25,no=26,missing=25,gain=1.67561686,cover=4.36461544
						25:leaf=0.172803372,cover=1.40594029
						26:leaf=-0.145436078,cover=2.95867538
				16:[x<-0.923794031] yes=21,no=22,missing=21,gain=1.07875168,cover=263.56131
					21:[y<0.725126266] yes=27,no=28,missing=27,gain=0.0684319735,cover=2.66988826
						27:leaf=-0.223839298,cover=1.17537117
						28:leaf=-0.0624575056,cover=1.49451709
					22:[x<-0.909203112] yes=29,no=30,missing=29,gain=0.897438347,cover=260.891418
						29:leaf=0.138089448,cover=2.58229995
						30:leaf=-0.0132170226,cover=258.309113
booster[14]:
0:[y<-0.894610643] yes=1,no=2,missing=1,gain=0.760765791,cover=285.455994
	1:[x<0.411926359] yes=3,no=4,missing=3,gain=8.06120682,cover=34.8119354
		3:[3<0.5] yes=7,no=8,missing=7,gain=3.88620925,cover=30.8766212
			7:leaf=-0.22269994,cover=2.32982254
			8:[x<-0.508756399] yes=11,no=12,missing=11,gain=2.84787416,cover=28.5467987
				11:leaf=-0.200743839,cover=1.43832529
				12:[y<-0.940056443] yes=17,no=18,missing=17,gain=1.2901125,cover=27.1084747
					17:[y<-0.948768377] yes=23,no=24,missing=23,gain=1.60281372,cover=17.9128799
						23:leaf=0.129574746,cover=15.0637255
						24:leaf=-0.0918079168,cover=2.84915423
					18:leaf=0.235131666,cover=9.19559383
		4:leaf=-0.321593046,cover=3.93531418
	2:[y<-0.887954354] yes=5,no=6,missing=5,gain=2.04753351,cover=250.644058
		5:leaf=-0.299304485,cover=1.18689597
		6:[x<0.77647537] yes=9,no=10,missing=9,gain=1.20009303,cover=249.457169
			9:[x<0.773216128] yes=13,no=14,missing=13,gain=2.92394352,cover=208.501541
				13:[y<-0.860529184] yes=19,no=20,missing=19,gain=1.60619712,cover=207.241196
					19:[x<-0.269051939] yes=25,no=26,missing=25,gain=0.118380785,cover=3.94869089
						25:leaf=0.0287363902,cover=1.00721323
						26:leaf=0.181091309,cover=2.94147778
					20:[x<-0.593844771] yes=27,no=28,missing=27,gain=1.49500608,cover=203.292496
						27:leaf=0.0213388447,cover=62.1750679
						28:leaf=-0.0341884531,cover=141.117432
				14:leaf=-0.356393695,cover=1.26034939
			10:[y<-0.412962407] yes=15,no=16,missing=15,gain=10.9433022,cover=40.9556236
				15:leaf=-0.398063689,cover=3.63246632
				16:[y<-0.0888668299] yes=21,no=22,missing=21,gain=3.47659492,cover=37.3231583
					21:[y<-0.345046997] yes=29,no=30,missing=29,gain=1.61997652,cover=11.3648367
						29:leaf=0.0305979066,cover=3.2764318
						30:leaf=0.287016839,cover=8.08840466
					22:[1<0.5] yes=31,no=32,missing=31,gain=7.07221556,cover=25.9583206
						31:leaf=-0.194885954,cover=7.90047979
						32:leaf=0.129192725,cover=18.0578403
booster[15]:
0:[x<0.956952929] yes=1,no=2,missing=1,gain=0.989048779,cover=278.879486
	1:[y<-1.02289152] yes=3,no=4,missing=3,gain=0.627801478,cover=274.447479
		3:[x<0.0455133617] yes=7,no=8,missing=7,gain=0.117409289,cover=3.42730212
			7:leaf=0.134524629,cover=2.2961123
			8:leaf=0.01127767,cover=1.13118982
		4:[y<-0.990174711] yes=9,no=10,missing=9,gain=0.947549224,cover=271.020172
			9:[y<-1.00943112] yes=11,no=12,missing=11,gain=0.359208226,cover=4.44263601
				11:leaf=0.00689432397,cover=1.2025336
				12:leaf=-0.173386782,cover=3.24010229
			10:[y<-0.967715263] yes=13,no=14,missing=13,gain=1.09682488,cover=266.577545
				13:[x<-0.103335381] yes=15,no=16,missing=15,gain=0.480629623,cover=4.1741519
					15:leaf=-0.0205816012,cover=1.18856955
					16:[x<0.118159324] yes=19,no=20,missing=19,gain=0.030710578,cover=2.98558235
						19:leaf=0.208752885,cover=1.93906319
						20:leaf=0.0535130613,cover=1.04651928
				14:[y<0.420157552] yes=17,no=18,missing=17,gain=0.709309042,cover=262.403412
					17:[0<0.5] yes=21,no=22,missing=21,gain=5.09074163,cover=157.129196
						21:leaf=-0.0102535626,cover=151.953629
						22:leaf=-0.288211912,cover=5.17555952
					18:[3<0.5] yes=23,no=24,missing=23,gain=8.59348583,cover=105.2742
						23:leaf=0.03531643,cover=97.7941055
						24:leaf=-0.279399276,cover=7.48010159
	2:[y<0.381195486] yes=5,no=6,missing=5,gain=0.517436445,cover=4.43200922
		5:leaf=0.191916198,cover=2.4859333
		6:leaf=-0.000785694225,cover=1.9460758
booster[16]:
0:[x<0.93159318] yes=1,no=2,missing=1,gain=0.677255809,cover=274.989471
	1:[x<0.922324777] yes=3,no=4,missing=3,gain=1.2639811,cover=267.427063
		3:[y<1.10804296] yes=7,no=8,missing=7,gain=0.779336452,cover=266.117096
			7:[y<1.09873867] yes=11,no=12,missing=11,gain=1.46758354,cover=257.156555
				11:[y<1.05432951] yes=17,no=18,missing=17,gain=0.889930546,cover=254.81041
					17:[y<1.02947032] yes=23,no=24,missing=23,gain=2.00234437,cover=248.381363
						23:leaf=-0.00330974325,cover=243.083633
						24:leaf=-0.174666077,cover=5.29773951
					18:[x<-0.545888364] yes=25,no=26,missing=25,gain=0.743914783,cover=6.42903614
						25:leaf=0.20055075,cover=2.42090511
						26:leaf=0.00798388105,cover=4.00813103
				12:[x<-0.722051382] yes=19,no=20,missing=19,gain=0.305738568,cover=2.34615612
					19:leaf=-0.282786071,cover=1.0302037
					20:leaf=-0.0477637425,cover=1.31595242
			8:[2<0.5] yes=13,no=14,missing=13,gain=1.59508467,cover=8.96052074
				13:[x<-0.589750409] yes=21,no=22,missing=21,gain=0.66427362,cover=7.87995386
					21:leaf=0.209291279,cover=3.51585913
					22:[1<0.5] yes=27,no=28,missing=27,gain=1.65706313,cover=4.36409473
						27:leaf=-0.182803616,cover=1.18611813
						28:leaf=0.14067319,cover=3.17797661
				14:leaf=-0.169824243,cover=1.08056641
		4:leaf=-0.226976439,cover=1.30997193
	2:[y<-0.21919094] yes=5,no=6,missing=5,gain=2.62804413,cover=7.56242085
		5:leaf=-0.224967167,cover=1.14064336
		6:[y<0.0408340245] yes=9,no=10,missing=9,gain=0.585391283,cover=6.42177773
			9:leaf=0.25010094,cover=2.48385262
			10:[y<0.88544488] yes=15,no=16,missing=15,gain=1.14572024,cover=3.9379251
				15:leaf=-0.123910129,cover=1.21545029
				16:leaf=0.152403831,cover=2.72247481
booster[17]:
0:[x<-0.934151649] yes=1,no=2,missing=1,gain=0.634619415,cover=273.648407
	1:[y<0.0781776309] yes=3,no=4,missing=3,gain=0.748632312,cover=7.52343988
		3:[y<-0.122824818] yes=7,no=8,missing=7,gain=0.594665647,cover=3.47330141
			7:leaf=-0.0148985041,cover=1.11204576
			8:leaf=0.225779995,cover=2.36125565
		4:[y<0.859250844] yes=9,no=10,missing=9,gain=1.18101692,cover=4.05013847
			9:leaf=-0.166596189,cover=1.53648591
			10:[x<-0.977729738] yes=15,no=16,missing=15,gain=0.266806006,cover=2.51365256
				15:leaf=-0.00451772753,cover=1.26537085
				16:leaf=0.164255291,cover=1.24828184
	2:[x<-0.923794031] yes=5,no=6,missing=5,gain=0.966458797,cover=266.124969
		5:[x<-0.929219246] yes=11,no=12,missing=11,gain=0.018656373,cover=2.65634751
			11:leaf=-0.189705774,cover=1.41569424
			12:leaf=-0.0540417917,cover=1.24065328
		6:[y<-0.58909452] yes=13,no=14,missing=13,gain=0.70205307,cover=263.468628
			13:[x<0.655259728] yes=17,no=18,missing=17,gain=7.60732126,cover=72.9702835
				17:[3<0.5] yes=21,no=22,missing=21,gain=6.75952196,cover=67.8446732
					21:leaf=-0.26031372,cover=4.84200287
					22:[x<-0.710428059] yes=27,no=28,missing=27,gain=3.23003006,cover=63.0026703
						27:leaf=-0.235709772,cover=1.91079259
						28:leaf=0.0909060091,cover=61.091877
				18:leaf=-0.299061418,cover=5.12560892
			14:[3<0.5] yes=19,no=20,missing=19,gain=3.77735734,cover=190.498352
				19:[y<0.0395355448] yes=23,no=24,missing=23,gain=2.94202065,cover=133.99028
					23:[x<-0.0453281887] yes=29,no=30,missing=29,gain=0.634915113,cover=8.26203156
						29:leaf=-0.24220854,cover=3.01552296
						30:leaf=-0.0646355376,cover=5.24650908
					24:[y<0.877100646] yes=31,no=32,missing=31,gain=1.83987331,cover=125.728256
						31:leaf=0.0588560328,cover=69.6269455
						32:leaf=-0.0137162106,cover=56.1013069
				20:[y<-0.0926505029] yes=25,no=26,missing=25,gain=7.60071373,cover=56.5080605
					25:[x<0.611462355] yes=33,no=34,missing=33,gain=4.64175653,cover=41.6796761
						33:leaf=-0.106242269,cover=21.050766
						34:leaf=0.0893806517,cover=20.6289101
					26:[x<0.90233171] yes=35,no=36,missing=35,gain=5.48061275,cover=14.8283834
						35:leaf=-0.333404005,cover=12.239357
						36:leaf=0.10952723,cover=2.58902574
booster[18]:
0:[y<0.965872169] yes=1,no=2,missing=1,gain=0.644049227,cover=263.920288
	1:[y<0.946288109] yes=3,no=4,missing=3,gain=4.49907637,cover=223.055206
		3:[x<0.675712168] yes=7,no=8,missing=7,gain=1.79154813,cover=217.517029
			7:[1<0.5] yes=13,no=14,missing=13,gain=2.859797,cover=177.808792
				13:[x<-0.0202766284] yes=21,no=22,missing=21,gain=1.02842259,cover=173.132812
					21:[2<0.5] yes=35,no=36,missing=35,gain=1.83479357,cover=93.6665573
						35:leaf=0.0235418081,cover=64.7487793
						36:leaf=-0.0660798848,cover=28.9177818
					22:[2<0.5] yes=37,no=38,missing=37,gain=5.52124405,cover=79.4662628
						37:leaf=-0.0221461058,cover=48.2336617
						38:leaf=0.137845784,cover=31.2325993
				14:[x<0.448002875] yes=23,no=24,missing=23,gain=0.696543455,cover=4.67596865
					23:leaf=-0.248599634,cover=3.66872478
					24:leaf=0.0136956628,cover=1.00724375
			8:[y<-0.551190972] yes=15,no=16,missing=15,gain=3.73507738,cover=39.7082405
				15:[x<0.712430239] yes=25,no=26,missing=25,gain=0.280795097,cover=4.90550518
					25:leaf=-0.0628023148,cover=1.06799924
					26:leaf=-0.315555155,cover=3.83750606
				16:[2<0.5] yes=27,no=28,missing=27,gain=2.81357527,cover=34.8027382
					27:[x<0.693769813] yes=39,no=40,missing=39,gain=2.40851784,cover=31.7364998
						39:leaf=-0.277043819,cover=1.47362053
						40:leaf=0.0305167735,cover=30.2628803
					28:leaf=-0.25662154,cover=3.0662365
		4:[y<0.95507592] yes=9,no=10,missing=9,gain=1.04388285,cover=5.53816986
			9:leaf=-0.415228963,cover=1.62064207
			10:[x<0.748518109] yes=17,no=18,missing=17,gain=0.865646601,cover=3.91752791
				17:[y<0.963533938] yes=29,no=30,missing=29,gain=0.45741269,cover=2.77493453
					29:leaf=0.0792105198,cover=1.63362563
					30:leaf=-0.10754779,cover=1.1413089
				18:leaf=-0.261731774,cover=1.1425935
	2:[2<0.5] yes=5,no=6,missing=5,gain=6.86427546,cover=40.865097
		5:[3<0.5] yes=11,no=12,missing=11,gain=2.11356544,cover=36.3185043
			11:[x<0.632050574] yes=19,no=20,missing=19,gain=1.68147993,cover=34.7052002
				19:[x<-0.545036077] yes=31,no=32,missing=31,gain=7.7306118,cover=20.2743416
					31:[y<1.09873867] yes=41,no=42,missing=41,gain=0.830323696,cover=14.9829779
						41:leaf=0.187426537,cover=10.4172401
						42:leaf=0.0287447851,cover=4.56573772
					32:[x<0.514303863] yes=43,no=44,missing=43,gain=0.487228394,cover=5.29136419
						43:leaf=-0.292748332,cover=4.01318979
						44:leaf=-0.0434478223,cover=1.27817404
				20:[y<1.15892565] yes=33,no=34,missing=33,gain=1.28741503,cover=14.4308605
					33:[y<1.03091431] yes=45,no=46,missing=45,gain=0.450913429,cover=13.0118256
						45:leaf=0.260631293,cover=5.93203974
						46:leaf=0.117297858,cover=7.07978582
					34:leaf=-0.0661674812,cover=1.41903508
			12:leaf=-0.190380588,cover=1.61330295
		6:leaf=-0.282100767,cover=4.54659319
booster[19]:
0:[x<-0.986201167] yes=1,no=2,missing=1,gain=0.572003603,cover=255.87442
	1:leaf=0.133628041,cover=1.64726388
	2:[x<-0.977729738] yes=3,no=4,missing=3,gain=0.699345767,cover=254.227158
		3:leaf=-0.177317709,cover=1.14190149
		4:[x<-0.934151649] yes=5,no=6,missing=5,gain=0.751366794,cover=253.085251
			5:[y<0.0781776309] yes=7,no=8,missing=7,gain=0.0708281994,cover=4.01753044
				7:[y<-0.120334432] yes=11,no=12,missing=11,gain=0.131587684,cover=2.24623346
					11:leaf=0.0237017833,cover=1.02396679
					12:leaf=0.182786167,cover=1.22226667
				8:leaf=0.0350420438,cover=1.77129686
			6:[y<-0.58909452] yes=9,no=10,missing=9,gain=0.639510989,cover=249.067719
				9:[3<0.5] yes=13,no=14,missing=13,gain=4.68665361,cover=67.5551376
					13:leaf=-0.252849132,cover=4.34717989
					14:[x<0.655259728] yes=17,no=18,missing=17,gain=3.80503511,cover=63.207962
						17:leaf=0.0576944835,cover=60.1434326
						18:leaf=-0.242737845,cover=3.06452632
				10:[3<0.5] yes=15,no=16,missing=15,gain=1.97876716,cover=181.512573
					15:[y<-0.000461183692] yes=19,no=20,missing=19,gain=2.23112035,cover=127.944534
						19:leaf=-0.226900741,cover=2.67012644
						20:leaf=0.0103886751,cover=125.274406
					16:[y<-0.146912724] yes=21,no=22,missing=21,gain=5.28587532,cover=53.5680466
						21:leaf=-0.00617680699,cover=39.3167076
						22:leaf=-0.21441099,cover=14.2513409
booster[20]:
0:[x<0.956952929] yes=1,no=2,missing=1,gain=0.638741672,cover=250.77565
	1:[y<-1.04481244] yes=3,no=4,missing=3,gain=0.491875231,cover=246.977402
		3:leaf=0.125188708,cover=1.51546144
		4:[y<-0.990174711] yes=7,no=8,missing=7,gain=0.605154157,cover=245.461945
			7:[x<-0.00273440545] yes=9,no=10,missing=9,gain=0.651709616,cover=5.43370438
				9:[x<-0.0900660977] yes=13,no=14,missing=13,gain=1.29298162,cover=2.42084908
					13:leaf=-0.147396773,cover=1.23348451
					14:leaf=0.177425414,cover=1.18736458
				10:[x<0.170700967] yes=15,no=16,missing=15,gain=0.0166372061,cover=3.01285529
					15:leaf=-0.0791743696,cover=1.95212257
					16:leaf=-0.224374428,cover=1.06073272
			8:[y<-0.97981298] yes=11,no=12,missing=11,gain=0.877512693,cover=240.028229
				11:leaf=0.163431197,cover=1.72974026
				12:[y<-0.947406054] yes=17,no=18,missing=17,gain=0.550354779,cover=238.298492
					17:[x<0.311369658] yes=19,no=20,missing=19,gain=2.55749702,cover=7.61799049
						19:leaf=0.0174264703,cover=6.19251347
						20:leaf=-0.343450189,cover=1.42547715
					18:[y<-0.902642846] yes=21,no=22,missing=21,gain=1.02682579,cover=230.680511
						21:leaf=0.0878175348,cover=9.29026604
						22:leaf=-0.00912933238,cover=221.390244
	2:[y<0.381195486] yes=5,no=6,missing=5,gain=0.538491488,cover=3.79825163
		5:leaf=0.18297261,cover=1.96527302
		6:leaf=-0.0159890391,cover=1.83297849
booster[21]:
0:[y<1.18104422] yes=1,no=2,missing=1,gain=0.481634736,cover=250.709885
	1:[y<1.15892565] yes=3,no=4,missing=3,gain=0.766590953,cover=248.71669
		3:[y<1.10804296] yes=5,no=6,missing=5,gain=0.798480392,cover=247.255127
			5:[y<1.09873867] yes=7,no=8,missing=7,gain=0.924780071,cover=242.937332
				7:[y<1.04992664] yes=11,no=12,missing=11,gain=0.949643433,cover=240.510681
					11:[y<1.02947032] yes=17,no=18,missing=17,gain=1.75641418,cover=233.457489
						17:leaf=-0.00297732349,cover=229.4095
						18:leaf=-0.181891888,cover=4.04798746
					12:[x<0.647089481] yes=19,no=20,missing=19,gain=0.754873276,cover=7.05319452
						19:leaf=-0.000436253991,cover=3.74592853
						20:leaf=0.183593392,cover=3.307266
				8:[y<1.1040926] yes=13,no=14,missing=13,gain=0.566602409,cover=2.42665219
					13:leaf=-0.258930922,cover=1.07385743
					14:leaf=-0.00531394314,cover=1.35279477
			6:[x<0.510331988] yes=9,no=10,missing=9,gain=0.124682605,cover=4.31779099
				9:[x<-0.772237897] yes=15,no=16,missing=15,gain=0.320979834,cover=2.56462955
					15:leaf=0.11395102,cover=1.3053273
					16:leaf=-0.0490236469,cover=1.25930238
				10:leaf=0.160992444,cover=1.75316119
		4:leaf=-0.17137289,cover=1.46155703
	2:leaf=0.116303436,cover=1.99319744
booster[22]:
0:[x<-1.0141964] yes=1,no=2,missing=1,gain=0.432682723,cover=250.855026
	1:leaf=0.132883757,cover=1.11301386
	2:[x<0.956952929] yes=3,no=4,missing=3,gain=0.415226579,cover=249.742004
		3:[y<0.965872169] yes=5,no=6,missing=5,gain=0.361452073,cover=246.062027
			5:[y<0.946288109] yes=9,no=10,missing=9,gain=3.20050287,cover=211.503754
				9:[x<0.714702845] yes=13,no=14,missing=13,gain=1.07501042,cover=205.773117
					13:[1<0.5] yes=19,no=20,missing=19,gain=1.3036561,cover=175.564957
						19:leaf=0.0107243862,cover=170.639435
						20:leaf=-0.132420257,cover=4.92552996
					14:[y<-0.550762177] yes=21,no=22,missing=21,gain=2.17402554,cover=30.2081528
						21:leaf=-0.272696763,cover=2.63954878
						22:leaf=-0.0247091874,cover=27.5686054
				10:[y<0.958931684] yes=15,no=16,missing=15,gain=0.432273388,cover=5.73063755
					15:leaf=-0.282964647,cover=3.00514936
					16:[y<0.963533938] yes=23,no=24,missing=23,gain=0.437253386,cover=2.72548819
						23:leaf=0.0373157673,cover=1.26120365
						24:leaf=-0.157070965,cover=1.46428454
			6:[2<0.5] yes=11,no=12,missing=11,gain=4.64100838,cover=34.5582771
				11:[y<1.02947032] yes=17,no=18,missing=17,gain=1.01015759,cover=31.0010471
					17:[x<0.58811748] yes=25,no=26,missing=25,gain=1.59777355,cover=12.3686533
						25:leaf=0.0277894773,cover=7.35243082
						26:leaf=0.240674898,cover=5.01622295
					18:[y<1.03962803] yes=27,no=28,missing=27,gain=2.68113923,cover=18.6323929
						27:leaf=-0.267964303,cover=1.62013507
						28:leaf=0.0570061803,cover=17.0122585
				12:leaf=-0.261135131,cover=3.5572319
		4:[y<0.381195486] yes=7,no=8,missing=7,gain=0.389789522,cover=3.67997384
			7:leaf=0.155344427,cover=1.83283162
			8:leaf=-0.0146778682,cover=1.84714222
booster[23]:
0:[y<-1.04481244] yes=1,no=2,missing=1,gain=0.333566368,cover=248.463333
	1:leaf=0.108904406,cover=1.39830363
	2:[y<-0.990174711] yes=3,no=4,missing=3,gain=0.458272785,cover=247.065018
		3:[x<-0.00273440545] yes=5,no=6,missing=5,gain=0.43168056,cover=5.48326731
			5:[x<-0.0900660977] yes=9,no=10,missing=9,gain=0.937640429,cover=2.33520603
				9:leaf=-0.120968223,cover=1.28206992
				10:leaf=0.15874505,cover=1.05313623
			6:[x<0.0566156507] yes=11,no=12,missing=11,gain=0.05582726,cover=3.14806104
				11:leaf=-0.185434729,cover=1.25745356
				12:leaf=-0.0568911321,cover=1.89060748
		4:[y<-0.97981298] yes=7,no=8,missing=7,gain=0.609992623,cover=241.581757
			7:leaf=0.14443554,cover=1.55418098
			8:[y<-0.942542315] yes=13,no=14,missing=13,gain=0.474824816,cover=240.027573
				13:[x<0.311369658] yes=15,no=16,missing=15,gain=1.65372491,cover=8.53952503
					15:[x<0.139046103] yes=19,no=20,missing=19,gain=0.879400909,cover=7.05046368
						19:leaf=-0.0484273545,cover=5.85984135
						20:leaf=0.169930965,cover=1.19062209
					16:leaf=-0.278785765,cover=1.48906124
				14:[y<-0.902642846] yes=17,no=18,missing=17,gain=0.661811471,cover=231.488052
					17:[y<-0.913812399] yes=21,no=22,missing=21,gain=1.02244091,cover=7.89735794
						21:leaf=-0.000513875508,cover=5.46431112
						22:leaf=0.20830442,cover=2.43304706
					18:[y<-0.887954354] yes=23,no=24,missing=23,gain=0.942692399,cover=223.590698
						23:leaf=-0.149130538,cover=2.92641973
						24:leaf=-0.000827335345,cover=220.664276
booster[24]:
0:[x<-0.986201167] yes=1,no=2,missing=1,gain=0.326809883,cover=248.33638
	1:leaf=0.105244547,cover=1.54681563
	2:[x<-0.977729738] yes=3,no=4,missing=3,gain=0.437410027,cover=246.789566
		3:leaf=-0.134799466,cover=1.23832774
		4:[x<-0.934151649] yes=5,no=6,missing=5,gain=0.547252715,cover=245.551239
			5:[y<0.860542178] yes=7,no=8,missing=7,gain=0.083450377,cover=3.82465172
				7:[y<-0.047667034] yes=11,no=12,missing=11,gain=0.245076358,cover=2.73591709
					11:leaf=0.0955525562,cover=1.68163443
					12:leaf=-0.0466209427,cover=1.05428278
				8:leaf=0.150671393,cover=1.08873451
			6:[x<-0.923794031] yes=9,no=10,missing=9,gain=0.50051403,cover=241.726578
				9:[y<0.725126266] yes=13,no=14,missing=13,gain=0.167368233,cover=2.72005224
					13:leaf=-0.169247121,cover=1.12996876
					14:leaf=-0.0227557253,cover=1.59008348
				10:[x<-0.909203112] yes=15,no=16,missing=15,gain=0.720814884,cover=239.006531
					15:[y<-0.109091535] yes=17,no=18,missing=17,gain=0.130071342,cover=2.45563197
						17:leaf=0.0215830468,cover=1.04282546
						18:leaf=0.173925921,cover=1.41280651
					16:[x<-0.766308546] yes=19,no=20,missing=19,gain=0.447881252,cover=236.550903
						19:leaf=-0.0395024717,cover=26.9275932
						20:leaf=0.000936606259,cover=209.623306
booster[25]:
0:[x<-0.679800153] yes=1,no=2,missing=1,gain=0.426021069,cover=248.342514
	1:[2<0.5] yes=3,no=4,missing=3,gain=7.24198389,cover=50.7244797
		3:[y<-0.461156517] yes=7,no=8,missing=7,gain=4.27447891,cover=46.1378708
			7:[x<-0.732811809] yes=13,no=14,missing=13,gain=5.10461092,cover=6.35825443
				13:leaf=-0.31608215,cover=4.28612518
				14:leaf=0.180773541,cover=2.07212949
			8:[y<-0.328218579] yes=15,no=16,missing=15,gain=2.18137646,cover=39.7796173
				15:leaf=0.291371733,cover=3.75871301
				16:[y<-0.293876231] yes=23,no=24,missing=23,gain=1.93281507,cover=36.0209045
					23:leaf=-0.176990643,cover=1.74889064
					24:[y<-0.222416013] yes=35,no=36,missing=35,gain=0.784756184,cover=34.2720146
						35:leaf=0.250867963,cover=1.64447582
						36:leaf=0.0723593831,cover=32.6275368
		4:leaf=-0.300265074,cover=4.58660698
	2:[0<0.5] yes=5,no=6,missing=5,gain=3.64901114,cover=197.618042
		5:[y<0.725327611] yes=9,no=10,missing=9,gain=1.37578845,cover=184.952682
			9:[2<0.5] yes=17,no=18,missing=17,gain=3.1298871,cover=149.299698
				17:[y<-0.478024304] yes=25,no=26,missing=25,gain=5.84391022,cover=97.9459534
					25:[x<-0.147596896] yes=37,no=38,missing=37,gain=2.52547884,cover=68.8904495
						37:leaf=0.141837701,cover=13.9795361
						38:leaf=0.00281320489,cover=54.9109154
					26:[x<0.77647537] yes=39,no=40,missing=39,gain=11.3726673,cover=29.0555019
						39:leaf=-0.309329093,cover=14.1169624
						40:leaf=0.0565848984,cover=14.9385405
				18:[x<0.17035383] yes=27,no=28,missing=27,gain=11.6141777,cover=51.3537483
					27:[x<-0.25653103] yes=41,no=42,missing=41,gain=7.70179272,cover=45.9621468
						41:leaf=-0.312855333,cover=2.45557857
						42:leaf=0.157268062,cover=43.5065689
					28:[y<0.0746924207] yes=43,no=44,missing=43,gain=0.109245777,cover=5.39160061
						43:leaf=-0.114717059,cover=1.61130345
						44:leaf=-0.346711189,cover=3.78029704
			10:[x<0.520874441] yes=19,no=20,missing=19,gain=10.2678175,cover=35.6529808
				19:[x<0.00493633701] yes=29,no=30,missing=29,gain=0.365169525,cover=10.1635475
					29:leaf=-0.352193981,cover=5.59061575
					30:[y<0.762062132] yes=45,no=46,missing=45,gain=2.95368981,cover=4.57293129
						45:leaf=0.170681611,cover=1.07763994
						46:leaf=-0.279562473,cover=3.49529147
				20:[y<1.04992664] yes=31,no=32,missing=31,gain=1.26328135,cover=25.4894333
					31:[y<1.02947032] yes=47,no=48,missing=47,gain=2.70786715,cover=19.5235424
						47:leaf=0.0573972762,cover=17.4680405
						48:leaf=-0.247620881,cover=2.05550241
					32:[x<0.897253573] yes=49,no=50,missing=49,gain=1.68278074,cover=5.96589088
						49:leaf=0.246041238,cover=4.40051079
						50:leaf=-0.0712696835,cover=1.5653801
		6:[x<-0.56674552] yes=11,no=12,missing=11,gain=6.28927708,cover=12.6653585
			11:[x<-0.667529523] yes=21,no=22,missing=21,gain=0.922260523,cover=4.30561924
				21:leaf=-0.060237661,cover=1.31615674
				22:[y<1.00508642] yes=33,no=34,missing=33,gain=0.0137945414,cover=2.98946238
					33:leaf=0.225576058,cover=1.80801618
					34:leaf=0.0653960183,cover=1.18144631
			12:leaf=-0.297077149,cover=8.35974026
booster[26]:
0:[y<0.416613013] yes=1,no=2,missing=1,gain=0.382089168,cover=231.597855
	1:[0<0.5] yes=3,no=4,missing=3,gain=2.91936016,cover=146.105179
		3:[1<0.5] yes=7,no=8,missing=7,gain=2.328372,cover=142.835587
			7:[x<0.0893020034] yes=11,no=12,missing=11,gain=1.67927682,cover=140.099518
				11:[x<-0.138887048] yes=17,no=18,missing=17,gain=2.79162145,cover=75.0375214
					17:[y<0.181676805] yes=27,no=28,missing=27,gain=2.31896019,cover=39.2754707
						27:leaf=0.0482542291,cover=36.4098167
						28:leaf=-0.19619821,cover=2.86565304
					18:[y<0.0890845656] yes=29,no=30,missing=29,gain=4.50052881,cover=35.7620506
						29:leaf=-0.162606716,cover=23.6112785
						30:leaf=0.0568207391,cover=12.1507721
				12:[y<-0.947507501] yes=19,no=20,missing=19,gain=1.32457757,cover=65.0619888
					19:[x<0.20163998] yes=31,no=32,missing=31,gain=2.11610126,cover=5.21910763
						31:leaf=0.106648646,cover=2.12089586
						32:leaf=-0.228090122,cover=3.09821153
					20:[y<-0.634081304] yes=33,no=34,missing=33,gain=1.57608044,cover=59.8428841
						33:leaf=0.109988026,cover=22.6249599
						34:leaf=0.010590611,cover=37.2179222
			8:leaf=-0.238590047,cover=2.73606992
		4:leaf=-0.256647617,cover=3.26959062
	2:[3<0.5] yes=5,no=6,missing=5,gain=3.28915906,cover=85.4926834
		5:[y<0.877100646] yes=9,no=10,missing=9,gain=1.58654726,cover=82.0678635
			9:[x<-0.111040741] yes=13,no=14,missing=13,gain=2.83759689,cover=31.8965206
				13:[0<0.5] yes=21,no=22,missing=21,gain=5.7032342,cover=10.0153952
					21:leaf=-0.337170064,cover=3.05871892
					22:[y<0.735024214] yes=35,no=36,missing=35,gain=2.3555665,cover=6.95667648
						35:leaf=-0.148807332,cover=1.71148336
						36:leaf=0.193118468,cover=5.245193
				14:[x<0.133764431] yes=23,no=24,missing=23,gain=4.30473232,cover=21.8811264
					23:[y<0.725327611] yes=37,no=38,missing=37,gain=2.49206638,cover=15.4066896
						37:leaf=0.261759639,cover=13.4694004
						38:leaf=-0.070279412,cover=1.93728912
					24:[y<0.747300982] yes=39,no=40,missing=39,gain=4.39319992,cover=6.47443628
						39:leaf=-0.238419563,cover=3.94715285
						40:leaf=0.201689944,cover=2.52728367
			10:[2<0.5] yes=15,no=16,missing=15,gain=4.45808077,cover=50.1713448
				15:[x<-0.586271405] yes=25,no=26,missing=25,gain=1.97160339,cover=45.8975639
					25:[x<-0.878682017] yes=41,no=42,missing=41,gain=1.02519596,cover=19.2740211
						41:leaf=-0.0182819311,cover=5.22127867
						42:leaf=0.132825226,cover=14.052743
					26:[x<0.58266747] yes=43,no=44,missing=43,gain=3.29388785,cover=26.6235409
						43:leaf=-0.208162099,cover=6.01560116
						44:leaf=0.0287834182,cover=20.6079407
				16:leaf=-0.268609613,cover=4.27378368
		6:leaf=-0.239309713,cover=3.42481589
booster[27]:
0:[y<-1.02289152] yes=1,no=2,missing=1,gain=0.537671208,cover=220.794693
	1:leaf=0.1110292,cover=2.60339141
	2:[y<0.965872169] yes=3,no=4,missing=3,gain=0.500842571,cover=218.191299
		3:[y<0.946288109] yes=5,no=6,missing=5,gain=1.56730366,cover=189.045212
			5:[y<0.93369174] yes=9,no=10,missing=9,gain=0.693285823,cover=183.185059
				9:[y<0.930684566] yes=15,no=16,missing=15,gain=0.990582764,cover=181.889618
					15:[y<0.919585824] yes=23,no=24,missing=23,gain=1.58441281,cover=180.152786
						23:leaf=-0.00915213767,cover=177.988159
						24:leaf=0.205011174,cover=2.16462755
					16:leaf=-0.18737343,cover=1.73683906
				10:leaf=0.157739609,cover=1.29544318
			6:[y<0.95507592] yes=11,no=12,missing=11,gain=0.55118227,cover=5.86014938
				11:leaf=-0.251926094,cover=2.03055835
				12:[x<0.748518109] yes=17,no=18,missing=17,gain=0.65523237,cover=3.8295908
					17:[y<0.963533938] yes=25,no=26,missing=25,gain=0.261624277,cover=2.41265106
						25:leaf=0.0978360847,cover=1.41088879
						26:leaf=-0.0524003208,cover=1.00176215
					18:leaf=-0.170582846,cover=1.41693985
		4:[2<0.5] yes=7,no=8,missing=7,gain=1.83290088,cover=29.1460915
			7:[y<1.02947032] yes=13,no=14,missing=13,gain=0.585612714,cover=27.3367767
				13:[x<0.58811748] yes=19,no=20,missing=19,gain=0.997173548,cover=10.4378347
					19:[0<0.5] yes=27,no=28,missing=27,gain=1.00925791,cover=6.30192947
						27:leaf=-0.14828971,cover=1.34872901
						28:leaf=0.0844435543,cover=4.95320034
					20:leaf=0.203103989,cover=4.13590574
				14:[y<1.03593588] yes=21,no=22,missing=21,gain=1.49662852,cover=16.8989429
					21:leaf=-0.215784654,cover=1.23684156
					22:[y<1.08731616] yes=29,no=30,missing=29,gain=0.607096076,cover=15.6621008
						29:leaf=0.106494978,cover=6.8496089
						30:leaf=-0.00744553935,cover=8.81249142
			8:leaf=-0.20257549,cover=1.80931485
booster[28]:
0:[y<-0.958773077] yes=1,no=2,missing=1,gain=0.397906661,cover=219.905136
	1:[x<0.188277811] yes=3,no=4,missing=3,gain=2.11011744,cover=11.7498608
		3:[x<-0.0900660977] yes=7,no=8,missing=7,gain=1.07070208,cover=9.53991318
			7:[y<-0.993949234] yes=11,no=12,missing=11,gain=0.304365546,cover=3.01648355
				11:leaf=-0.106422961,cover=1.30504107
				12:leaf=0.0439757444,cover=1.71144235
			8:[y<-0.999686539] yes=13,no=14,missing=13,gain=0.133913279,cover=6.52342987
				13:[y<-1.01286232] yes=19,no=20,missing=19,gain=0.542988777,cover=3.02629352
					19:leaf=0.150259733,cover=1.9875375
					20:leaf=-0.0609830134,cover=1.03875613
				14:leaf=0.214219749,cover=3.49713635
		4:leaf=-0.169172361,cover=2.20994687
	2:[y<-0.951586366] yes=5,no=6,missing=5,gain=0.666470051,cover=208.155273
		5:leaf=-0.140297189,cover=2.27732229
		6:[y<-0.891354263] yes=9,no=10,missing=9,gain=0.380446851,cover=205.87796
			9:[x<0.422881722] yes=15,no=16,missing=15,gain=1.28284359,cover=12.7486267
				15:[x<0.0788088441] yes=21,no=22,missing=21,gain=1.53090239,cover=11.7293463
					21:[y<-0.913812399] yes=25,no=26,missing=25,gain=0.840595186,cover=7.61303806
						25:leaf=-0.0712605715,cover=5.28519058
						26:leaf=0.115268856,cover=2.32784772
					22:[y<-0.941385508] yes=27,no=28,missing=27,gain=0.113488674,cover=4.11630821
						27:leaf=0.0505418219,cover=1.06838846
						28:leaf=0.231766447,cover=3.04791975
				16:leaf=-0.182557002,cover=1.0192802
			10:[y<-0.8823241] yes=17,no=18,missing=17,gain=1.39755213,cover=193.129333
				17:leaf=-0.256544739,cover=1.00413799
				18:[y<-0.860529184] yes=23,no=24,missing=23,gain=0.858954489,cover=192.125198
					23:leaf=0.138512567,cover=2.70089459
					24:[y<-0.845739245] yes=29,no=30,missing=29,gain=1.09842193,cover=189.424301
						29:leaf=-0.154148325,cover=3.48519444
						30:leaf=-0.00387413544,cover=185.939102
booster[29]:
0:[y<1.18104422] yes=1,no=2,missing=1,gain=0.32060799,cover=219.453354
	1:[y<1.15892565] yes=3,no=4,missing=3,gain=0.571631551,cover=218.007248
		3:[y<1.10804296] yes=5,no=6,missing=5,gain=0.554834366,cover=216.693741
			5:[y<1.09873867] yes=7,no=8,missing=7,gain=0.909211934,cover=213.48085
				7:[y<1.04992664] yes=9,no=10,missing=9,gain=0.691909432,cover=211.256241
					9:[y<0.87797749] yes=13,no=14,missing=13,gain=0.474772692,cover=206.301514
						13:leaf=0.00215638336,cover=172.459106
						14:leaf=-0.0362276435,cover=33.8424149
					10:[x<-0.545888364] yes=15,no=16,missing=15,gain=0.355535686,cover=4.95472527
						15:leaf=0.183103397,cover=1.6249702
						16:leaf=0.0257478561,cover=3.32975507
				8:[y<1.1040926] yes=11,no=12,missing=11,gain=0.510494351,cover=2.22461438
					11:leaf=-0.25142926,cover=1.06396782
					12:leaf=-0.00146691373,cover=1.16064656
			6:leaf=0.106123723,cover=3.21287966
		4:leaf=-0.151633471,cover=1.31351078
	2:leaf=0.105927028,cover=1.44610739
booster[30]:
0:[x<-0.934151649] yes=1,no=2,missing=1,gain=0.303187609,cover=219.786789
	1:[y<0.0781776309] yes=3,no=4,missing=3,gain=0.409891456,cover=5.8035121
		3:[y<-0.120334432] yes=7,no=8,missing=7,gain=0.341654718,cover=2.59252
			7:leaf=-0.00761266472,cover=1.03444088
			8:leaf=0.189723581,cover=1.55807912
		4:[y<0.859250844] yes=9,no=10,missing=9,gain=0.768072665,cover=3.2109921
			9:leaf=-0.145128325,cover=1.20621574
			10:leaf=0.0882106423,cover=2.00477648
	2:[x<-0.766308546] yes=5,no=6,missing=5,gain=0.514570177,cover=213.983276
		5:[y<-0.432803273] yes=11,no=12,missing=11,gain=2.88298178,cover=28.3958187
			11:leaf=-0.286011249,cover=2.74846506
			12:[x<-0.789512515] yes=15,no=16,missing=15,gain=1.82997429,cover=25.6473522
				15:[y<-0.147588655] yes=21,no=22,missing=21,gain=1.91944671,cover=21.3508892
					21:[x<-0.828004599] yes=31,no=32,missing=31,gain=0.47617054,cover=6.09471035
						31:leaf=0.0719292387,cover=4.02072048
						32:leaf=0.258069992,cover=2.07398963
					22:[y<0.735611558] yes=33,no=34,missing=33,gain=4.76203346,cover=15.2561789
						33:leaf=-0.271242172,cover=3.97433949
						34:leaf=0.0769233108,cover=11.2818394
				16:[y<0.895601034] yes=23,no=24,missing=23,gain=0.926487446,cover=4.29646397
					23:leaf=-0.263459474,cover=2.21740627
					24:leaf=-0.00436632475,cover=2.07905769
		6:[x<-0.679800153] yes=13,no=14,missing=13,gain=1.67403722,cover=185.587463
			13:[2<0.5] yes=17,no=18,missing=17,gain=2.16478014,cover=10.067111
				17:[y<-0.606265366] yes=25,no=26,missing=25,gain=1.20390487,cover=8.99365997
					25:leaf=-0.0787185356,cover=1.05944431
					26:[y<1.07000339] yes=35,no=36,missing=35,gain=0.616384506,cover=7.93421602
						35:leaf=0.232449815,cover=6.87382793
						36:leaf=-0.00583418459,cover=1.06038785
				18:leaf=-0.181557506,cover=1.07345045
			14:[0<0.5] yes=19,no=20,missing=19,gain=1.90865386,cover=175.520355
				19:[x<-0.619599879] yes=27,no=28,missing=27,gain=1.17112994,cover=165.552078
					27:[y<-0.570735335] yes=37,no=38,missing=37,gain=0.640682936,cover=3.55245376
						37:leaf=-0.234492242,cover=1.83150208
						38:leaf=-0.00150922895,cover=1.72095168
					28:[y<0.714718759] yes=39,no=40,missing=39,gain=0.594053447,cover=161.999634
						39:leaf=0.0163233429,cover=131.313354
						40:leaf=-0.0294325147,cover=30.6862774
				20:[x<-0.545036077] yes=29,no=30,missing=29,gain=4.6349225,cover=9.96826649
					29:[y<0.938388348] yes=41,no=42,missing=41,gain=0.979946792,cover=4.28432608
						41:leaf=-0.0544928908,cover=1.82234979
						42:leaf=0.194394588,cover=2.46197605
					30:leaf=-0.284198701,cover=5.68394089
booster[31]:
0:[x<0.93159318] yes=1,no=2,missing=1,gain=0.348076552,cover=215.265121
	1:[x<0.922324777] yes=3,no=4,missing=3,gain=0.805231512,cover=209.18071
		3:[y<1.10804296] yes=7,no=8,missing=7,gain=0.421237916,cover=208.134247
			7:[y<1.09873867] yes=11,no=12,missing=11,gain=0.6717906,cover=202.952484
				11:[y<1.00133896] yes=15,no=16,missing=15,gain=0.44390735,cover=200.612915
					15:[y<0.913178682] yes=21,no=22,missing=21,gain=0.935779452,cover=189.044067
						21:leaf=0.00101189676,cover=170.607178
						22:leaf=-0.0684567317,cover=18.4368916
					16:[x<-0.545888364] yes=23,no=24,missing=23,gain=1.64506614,cover=11.5688496
						23:leaf=0.176431268,cover=4.47190666
						24:leaf=-0.0383100323,cover=7.0969429
				12:[y<1.10310328] yes=17,no=18,missing=17,gain=0.537314653,cover=2.33957481
					17:leaf=-0.230867714,cover=1.09906828
					18:leaf=0.0103360862,cover=1.24050641
			8:[0<0.5] yes=13,no=14,missing=13,gain=0.430992752,cover=5.18174982
				13:[x<0.63649714] yes=19,no=20,missing=19,gain=0.598533332,cover=2.95357966
					19:leaf=-0.126388445,cover=1.10059536
					20:leaf=0.0846792161,cover=1.85298431
				14:leaf=0.150591269,cover=2.22817039
		4:leaf=-0.191519514,cover=1.04647148
	2:[y<-0.135226294] yes=5,no=6,missing=5,gain=1.25336373,cover=6.08440733
		5:leaf=-0.147453219,cover=1.09250283
		6:[x<0.98707962] yes=9,no=10,missing=9,gain=0.447323442,cover=4.99190426
			9:leaf=0.183997616,cover=3.01389647
			10:leaf=0.00634864997,cover=1.97800779
booster[32]:
0:[x<0.464235008] yes=1,no=2,missing=1,gain=0.39184469,cover=214.803116
	1:[1<0.5] yes=3,no=4,missing=3,gain=2.89156389,cover=147.923309
		3:[y<0.0939602554] yes=7,no=8,missing=7,gain=0.895074487,cover=144.444885
			7:[x<-0.147596896] yes=11,no=12,missing=11,gain=2.31911469,cover=78.206871
				11:[x<-0.523782074] yes=17,no=18,missing=17,gain=1.46289802,cover=33.0764465
					17:[x<-0.873639166] yes=27,no=28,missing=27,gain=1.88030672,cover=24.4409313
						27:leaf=0.123630054,cover=6.51174927
						28:leaf=-0.0537695773,cover=17.9291821
					18:[y<-0.739225149] yes=29,no=30,missing=29,gain=1.82808125,cover=8.63551807
						29:leaf=0.220644042,cover=5.75257826
						30:leaf=-0.050231535,cover=2.88293958
				12:[y<-0.778702319] yes=19,no=20,missing=19,gain=5.64775276,cover=45.1304245
					19:[x<0.116416335] yes=31,no=32,missing=31,gain=3.52094531,cover=29.1951714
						31:leaf=-0.0760467052,cover=16.830225
						32:leaf=0.12766774,cover=12.3649473
					20:[y<-0.0109966062] yes=33,no=34,missing=33,gain=2.96785116,cover=15.9352512
						33:leaf=-0.32233119,cover=8.16501522
						34:leaf=-0.0605605431,cover=7.77023554
			8:[x<0.163177907] yes=13,no=14,missing=13,gain=2.94758058,cover=66.2380219
				13:[x<-0.107107848] yes=21,no=22,missing=21,gain=2.8620441,cover=63.7938538
					21:[0<0.5] yes=35,no=36,missing=35,gain=5.33333015,cover=34.6707573
						35:leaf=-0.196953729,cover=9.89140797
						36:leaf=0.0535444878,cover=24.7793484
					22:[y<0.786532521] yes=37,no=38,missing=37,gain=7.98649454,cover=29.1230965
						37:leaf=0.165035129,cover=25.5024338
						38:leaf=-0.265505165,cover=3.62066388
				14:leaf=-0.248317972,cover=2.44416571
		4:leaf=-0.247556701,cover=3.47841787
	2:[2<0.5] yes=5,no=6,missing=5,gain=3.18536997,cover=66.8798065
		5:[y<-0.832984924] yes=9,no=10,missing=9,gain=2.82156801,cover=63.9814758
			9:leaf=-0.254335165,cover=1.96207058
			10:[y<-0.560465157] yes=15,no=16,missing=15,gain=2.26468468,cover=62.0194054
				15:[x<0.684958339] yes=23,no=24,missing=23,gain=3.85570097,cover=11.1060371
					23:[x<0.623008847] yes=39,no=40,missing=39,gain=0.686544418,cover=9.69910908
						39:leaf=0.277676314,cover=6.90120745
						40:leaf=0.0704094097,cover=2.79790163
					24:leaf=-0.204729274,cover=1.40692782
				16:[x<0.622967064] yes=25,no=26,missing=25,gain=2.65614247,cover=50.9133682
					25:[1<0.5] yes=41,no=42,missing=41,gain=1.28820205,cover=3.55283546
						41:leaf=-0.31118381,cover=2.10179114
						42:leaf=0.0190500543,cover=1.45104444
					26:[x<0.668248415] yes=43,no=44,missing=43,gain=1.13486147,cover=47.3605347
						43:leaf=0.208391696,cover=2.30190158
						44:leaf=0.0250562057,cover=45.0586319
		6:leaf=-0.246428072,cover=2.8983283
booster[33]:
0:[y<-1.02289152] yes=1,no=2,missing=1,gain=0.32961145,cover=203.87648
	1:[x<0.0143700596] yes=3,no=4,missing=3,gain=0.0487697423,cover=2.33022642
		3:leaf=0.11731606,cover=1.26884365
		4:leaf=0.0176221691,cover=1.06138289
	2:[y<-0.990174711] yes=5,no=6,missing=5,gain=0.341602474,cover=201.546265
		5:[x<0.0109562948] yes=7,no=8,missing=7,gain=0.192636311,cover=4.20209885
			7:[x<-0.0886675045] yes=11,no=12,missing=11,gain=0.498095214,cover=2.2464354
				11:leaf=-0.115961671,cover=1.00564957
				12:leaf=0.0900050998,cover=1.24078584
			8:leaf=-0.130740717,cover=1.95566344
		6:[y<-0.958773077] yes=9,no=10,missing=9,gain=0.70743531,cover=197.344162
			9:[x<0.136968404] yes=13,no=14,missing=13,gain=0.469638109,cover=4.45471621
				13:[x<-0.103335381] yes=17,no=18,missing=17,gain=0.443172932,cover=3.39970493
					17:leaf=-0.00237331819,cover=1.2235198
					18:leaf=0.208215356,cover=2.17618513
				14:leaf=-0.0425404832,cover=1.05501139
			10:[x<0.404098928] yes=15,no=16,missing=15,gain=0.391966283,cover=192.88945
				15:[1<0.5] yes=19,no=20,missing=19,gain=1.82947803,cover=124.542793
					19:[y<-0.434898198] yes=23,no=24,missing=23,gain=1.52380812,cover=121.963478
						23:leaf=-0.0578871705,cover=38.1647911
						24:leaf=0.0136806974,cover=83.7986832
					20:leaf=-0.226734072,cover=2.57932115
				16:[2<0.5] yes=21,no=22,missing=21,gain=2.79752302,cover=68.3466492
					21:[y<-0.875572801] yes=25,no=26,missing=25,gain=1.15354228,cover=65.6990891
						25:leaf=-0.187946215,cover=1.20392799
						26:leaf=0.0334570408,cover=64.495163
					22:leaf=-0.243260697,cover=2.64755869
booster[34]:
0:[y<-0.902642846] yes=1,no=2,missing=1,gain=0.346098125,cover=201.885147
	1:[x<0.311369658] yes=3,no=4,missing=3,gain=1.68103015,cover=22.8847332
		3:[x<-0.40299058] yes=7,no=8,missing=7,gain=1.30607593,cover=20.4848824
			7:leaf=-0.172037929,cover=1.07272851
			8:[x<-0.112573326] yes=13,no=14,missing=13,gain=0.63265729,cover=19.4121552
				13:[y<-0.980802834] yes=17,no=18,missing=17,gain=0.120047688,cover=3.11499071
					17:leaf=0.0443348587,cover=1.0425638
					18:leaf=0.224070445,cover=2.0724268
				14:[x<-0.0814877898] yes=19,no=20,missing=19,gain=0.775383294,cover=16.2971649
					19:leaf=-0.088513501,cover=2.18015862
					20:[y<-0.942542315] yes=25,no=26,missing=25,gain=0.391977549,cover=14.1170053
						25:leaf=0.0398926362,cover=10.3485975
						26:leaf=0.150245756,cover=3.76840782
		4:leaf=-0.166747123,cover=2.39985013
	2:[y<-0.887954354] yes=5,no=6,missing=5,gain=0.677690387,cover=179.000412
		5:[y<-0.894610643] yes=9,no=10,missing=9,gain=0.337267041,cover=2.72866106
			9:leaf=-0.0186879989,cover=1.62318099
			10:leaf=-0.2138661,cover=1.10548007
		6:[y<-0.860529184] yes=11,no=12,missing=11,gain=0.77334249,cover=176.271744
			11:leaf=0.134059489,cover=2.54934144
			12:[y<-0.793480873] yes=15,no=16,missing=15,gain=0.725204408,cover=173.722412
				15:[x<0.18250072] yes=21,no=22,missing=21,gain=1.85588896,cover=8.55114079
					21:[x<-0.294747829] yes=27,no=28,missing=27,gain=2.83782005,cover=4.61746264
						27:leaf=0.0767159089,cover=1.77103055
						28:leaf=-0.347091883,cover=2.84643221
					22:[x<0.474013597] yes=29,no=30,missing=29,gain=2.230443,cover=3.93367815
						29:leaf=0.181086555,cover=2.91004419
						30:leaf=-0.209558025,cover=1.02363396
				16:[y<-0.777920008] yes=23,no=24,missing=23,gain=0.643636405,cover=165.171265
					23:leaf=0.159474313,cover=1.17335415
					24:[x<0.459492236] yes=31,no=32,missing=31,gain=0.506062686,cover=163.99791
						31:leaf=-0.017519379,cover=103.672836
						32:leaf=0.0168088134,cover=60.3250771
booster[35]:
0:[x<-0.986201167] yes=1,no=2,missing=1,gain=0.291285872,cover=200.416504
	1:leaf=0.106189065,cover=1.20848143
	2:[x<-0.977729738] yes=3,no=4,missing=3,gain=0.456172615,cover=199.208023
		3:leaf=-0.143292353,cover=1.07549536
		4:[x<-0.934151649] yes=5,no=6,missing=5,gain=0.345107794,cover=198.132538
			5:leaf=0.0871157274,cover=2.84602571
			6:[x<-0.766308546] yes=7,no=8,missing=7,gain=0.387554079,cover=195.286514
				7:[y<-0.432803273] yes=9,no=10,missing=9,gain=1.83190417,cover=25.6103001
					9:leaf=-0.25129807,cover=2.17211127
					10:[y<-0.328218579] yes=13,no=14,missing=13,gain=1.52281737,cover=23.4381886
						13:leaf=0.207264021,cover=1.65783226
						14:leaf=-0.0327526219,cover=21.7803555
				8:[x<-0.679800153] yes=11,no=12,missing=11,gain=1.30381703,cover=169.676208
					11:[y<-0.573608577] yes=15,no=16,missing=15,gain=0.325151682,cover=8.70218086
						15:leaf=-0.0247350372,cover=1.11554182
						16:leaf=0.128636554,cover=7.58663845
					12:[0<0.5] yes=17,no=18,missing=17,gain=1.41378319,cover=160.97403
						17:leaf=0.00213069166,cover=152.682358
						18:leaf=-0.118387245,cover=8.29166317
booster[36]:
0:[y<-1.02289152] yes=1,no=2,missing=1,gain=0.252870679,cover=199.429291
	1:[x<0.0143700596] yes=3,no=4,missing=3,gain=0.0329702049,cover=2.15268326
		3:leaf=0.105924532,cover=1.13358676
		4:leaf=0.0172250718,cover=1.01909637
	2:[y<-0.990174711] yes=5,no=6,missing=5,gain=0.270985603,cover=197.276611
		5:[x<-0.00273440545] yes=7,no=8,missing=7,gain=0.161558121,cover=4.20706224
			7:leaf=0.00326951942,cover=1.70911479
			8:[x<0.073350668] yes=11,no=12,missing=11,gain=0.147442549,cover=2.49794769
				11:leaf=-0.161957189,cover=1.00481045
				12:leaf=-0.020476697,cover=1.49313724
		6:[y<-0.958773077] yes=9,no=10,missing=9,gain=0.482995927,cover=193.06955
			9:[y<-0.965770483] yes=13,no=14,missing=13,gain=0.323007822,cover=4.08543491
				13:[y<-0.97981298] yes=17,no=18,missing=17,gain=0.617517948,cover=2.991997
					17:leaf=0.139535218,cover=1.10832119
					18:leaf=-0.0746829957,cover=1.88367581
				14:leaf=0.181345046,cover=1.09343791
			10:[y<-0.954339385] yes=15,no=16,missing=15,gain=0.327713013,cover=188.984116
				15:leaf=-0.116467319,cover=1.28509903
				16:[x<-0.986201167] yes=19,no=20,missing=19,gain=0.287759632,cover=187.699005
					19:leaf=0.108909942,cover=1.07758367
					20:[x<-0.977729738] yes=21,no=22,missing=21,gain=0.309207201,cover=186.621429
						21:leaf=-0.116779476,cover=1.13918555
						22:leaf=-0.00204695971,cover=185.482239
booster[37]:
0:[y<0.416613013] yes=1,no=2,missing=1,gain=0.21966657,cover=199.410324
	1:[0<0.5] yes=3,no=4,missing=3,gain=1.61096883,cover=130.821579
		3:[1<0.5] yes=7,no=8,missing=7,gain=1.54620409,cover=128.721161
			7:[y<0.193785116] yes=11,no=12,missing=11,gain=0.890960276,cover=126.73246
				11:[y<0.0939602554] yes=17,no=18,missing=17,gain=1.4214735,cover=114.272736
					17:[2<0.5] yes=27,no=28,missing=27,gain=1.00822306,cover=107.225525
						27:leaf=0.0119626382,cover=95.2360535
						28:leaf=-0.0770807117,cover=11.9894762
					18:[x<-0.163486063] yes=29,no=30,missing=29,gain=0.838834405,cover=7.04720783
						29:leaf=-0.0649510697,cover=1.09929693
						30:leaf=0.172662735,cover=5.94791079
				12:[x<0.084844321] yes=19,no=20,missing=19,gain=1.64276588,cover=12.4597263
					19:[x<-0.0449201353] yes=31,no=32,missing=31,gain=2.85142851,cover=9.37047863
						31:leaf=-0.133985236,cover=5.39575481
						32:leaf=0.168854982,cover=3.97472405
					20:leaf=-0.229698643,cover=3.0892477
			8:leaf=-0.216285363,cover=1.9887023
		4:leaf=-0.221870035,cover=2.10040784
	2:[3<0.5] yes=5,no=6,missing=5,gain=2.33374,cover=68.5887451
		5:[y<0.87797749] yes=9,no=10,missing=9,gain=1.01092577,cover=65.981369
			9:[x<-0.111040741] yes=13,no=14,missing=13,gain=1.49398041,cover=24.5937691
				13:[0<0.5] yes=21,no=22,missing=21,gain=3.15880966,cover=8.19207573
					21:leaf=-0.279955596,cover=2.10640478
					22:[y<0.735024214] yes=33,no=34,missing=33,gain=1.48000932,cover=6.08567142
						33:leaf=-0.119179629,cover=1.57040656
						34:leaf=0.162686378,cover=4.51526499
				14:[x<0.133764431] yes=23,no=24,missing=23,gain=1.75927258,cover=16.4016914
					23:[y<0.725327611] yes=35,no=36,missing=35,gain=1.60340118,cover=11.310605
						35:leaf=0.228202373,cover=9.56039619
						36:leaf=-0.0553333089,cover=1.75020897
					24:[y<0.747300982] yes=37,no=38,missing=37,gain=2.45911598,cover=5.09108734
						37:leaf=-0.174202219,cover=3.00890064
						38:leaf=0.18253085,cover=2.0821867
			10:[2<0.5] yes=15,no=16,missing=15,gain=1.81234145,cover=41.3876038
				15:[y<0.896172643] yes=25,no=26,missing=25,gain=1.76904726,cover=39.1401939
					25:[x<0.717813551] yes=39,no=40,missing=39,gain=0.0574735403,cover=2.43618965
						39:leaf=-0.24038212,cover=1.12852752
						40:leaf=-0.0652805418,cover=1.30766201
					26:[y<0.913178682] yes=41,no=42,missing=41,gain=1.33729601,cover=36.7040024
						41:leaf=0.210497111,cover=2.44695926
						42:leaf=0.0138938278,cover=34.2570457
				16:leaf=-0.219235256,cover=2.2474103
		6:leaf=-0.222655371,cover=2.60737228
booster[38]:
0:[x<-0.126498461] yes=1,no=2,missing=1,gain=0.319320649,cover=193.591049
	1:[2<0.5] yes=3,no=4,missing=3,gain=0.766486526,cover=64.7814331
		3:[x<-0.766308546] yes=7,no=8,missing=7,gain=0.603993177,cover=55.316555
			7:[y<-0.433348477] yes=13,no=14,missing=13,gain=2.43447328,cover=28.1720924
				13:leaf=-0.246291265,cover=2.28356433
				14:[x<-0.789512515] yes=21,no=22,missing=21,gain=1.3313905,cover=25.8885288
					21:[y<-0.313577294] yes=31,no=32,missing=31,gain=0.847913086,cover=22.0671558
						31:leaf=0.220345587,cover=1.56490159
						32:leaf=0.0342459828,cover=20.5022545
					22:[y<0.895601034] yes=33,no=34,missing=33,gain=0.481788158,cover=3.82137275
						33:leaf=-0.194166958,cover=1.91392589
						34:leaf=-0.000148326159,cover=1.90744686
			8:[y<1.09873867] yes=15,no=16,missing=15,gain=0.884185553,cover=27.1444607
				15:[x<-0.384754092] yes=23,no=24,missing=23,gain=1.02145064,cover=25.8312531
					23:[y<0.697042465] yes=35,no=36,missing=35,gain=1.10600781,cover=19.7352695
						35:leaf=0.0510611609,cover=13.7082548
						36:leaf=0.203207612,cover=6.02701426
					24:[y<-0.836163759] yes=37,no=38,missing=37,gain=4.43369579,cover=6.09598398
						37:leaf=0.163291588,cover=3.67792821
						38:leaf=-0.286658138,cover=2.41805577
				16:leaf=-0.124256983,cover=1.31320834
		4:[x<-0.181764245] yes=9,no=10,missing=9,gain=5.37231541,cover=9.46487999
			9:leaf=-0.278302968,cover=4.26916122
			10:[y<0.263777733] yes=17,no=18,missing=17,gain=0.520204544,cover=5.19571829
				17:[x<-0.139498606] yes=25,no=26,missing=25,gain=1.20137024,cover=4.14737463
					25:leaf=0.258162767,cover=2.9137404
					26:leaf=-0.0486060567,cover=1.23363435
				18:leaf=-0.0314135104,cover=1.04834378
	2:[0<0.5] yes=5,no=6,missing=5,gain=2.33693409,cover=128.809616
		5:[x<-0.121372961] yes=11,no=12,missing=11,gain=1.8892324,cover=125.865585
			11:leaf=-0.280044168,cover=1.18828142
			12:[2<0.5] yes=19,no=20,missing=19,gain=0.716202855,cover=124.677307
				19:[x<0.156672776] yes=27,no=28,missing=27,gain=2.12971854,cover=91.908783
					27:[y<-0.902642846] yes=39,no=40,missing=39,gain=6.95628452,cover=20.0274811
						39:leaf=0.0465646386,cover=12.2130003
						40:leaf=-0.299975902,cover=7.8144803
					28:[y<-0.965770483] yes=41,no=42,missing=41,gain=0.789016187,cover=71.8813019
						41:leaf=-0.139197543,cover=1.99527895
						42:leaf=0.0181506146,cover=69.8860168
				20:[x<0.177869305] yes=29,no=30,missing=29,gain=3.81490922,cover=32.768528
					29:[y<0.79484868] yes=43,no=44,missing=43,gain=2.58653498,cover=29.9440365
						43:leaf=0.0966525376,cover=28.1949139
						44:leaf=-0.211038858,cover=1.74912333
					30:leaf=-0.245826945,cover=2.82448959
		6:leaf=-0.238263533,cover=2.94402599
booster[39]:
0:[x<-0.891394138] yes=1,no=2,missing=1,gain=0.290193379,cover=185.054489
	1:[y<-0.20397073] yes=3,no=4,missing=3,gain=0.617730379,cover=10.8380623
		3:leaf=-0.113673978,cover=1.08629
		4:[y<0.0157257989] yes=7,no=8,missing=7,gain=1.23503184,cover=9.75177288
			7:leaf=0.201100439,cover=2.93310666
			8:[y<0.859250844] yes=13,no=14,missing=13,gain=0.848514616,cover=6.81866598
				13:leaf=-0.140243262,cover=1.91624796
				14:[y<0.915446877] yes=21,no=22,missing=21,gain=0.654582024,cover=4.90241814
					21:leaf=0.18780975,cover=1.19503558
					22:[y<0.974417448] yes=33,no=34,missing=33,gain=1.07209146,cover=3.70738244
						33:leaf=-0.165481418,cover=1.39859045
						34:leaf=0.098198317,cover=2.30879188
	2:[y<-0.477602661] yes=5,no=6,missing=5,gain=0.485040903,cover=174.216415
		5:[3<0.5] yes=9,no=10,missing=9,gain=2.2496357,cover=63.0500832
			9:leaf=-0.221875519,cover=2.47401214
			10:[x<0.719155371] yes=15,no=16,missing=15,gain=1.25621998,cover=60.5760689
				15:[x<0.426736116] yes=23,no=24,missing=23,gain=1.36594748,cover=57.85952
					23:[x<-0.274138033] yes=35,no=36,missing=35,gain=1.74257982,cover=41.6023903
						35:leaf=0.1004159,cover=11.7064486
						36:leaf=-0.0315850526,cover=29.8959408
					24:[y<-0.798922718] yes=37,no=38,missing=37,gain=2.12572336,cover=16.2571335
						37:leaf=-0.109637849,cover=2.62768507
						38:leaf=0.154145271,cover=13.6294479
				16:[y<-0.555854678] yes=25,no=26,missing=25,gain=0.699491382,cover=2.71654892
					25:leaf=-0.242531121,cover=1.3643353
					26:leaf=0.0166893061,cover=1.35221362
		6:[3<0.5] yes=11,no=12,missing=11,gain=1.44897366,cover=111.166336
			11:[x<-0.874220014] yes=17,no=18,missing=17,gain=1.44067228,cover=80.8221054
				17:leaf=-0.238221169,cover=1.191939
				18:[x<-0.846228123] yes=27,no=28,missing=27,gain=0.729541421,cover=79.6301651
					27:leaf=0.16531834,cover=1.5777061
					28:[x<0.144463152] yes=39,no=40,missing=39,gain=0.502925038,cover=78.0524597
						39:leaf=0.0212952085,cover=49.3227196
						40:leaf=-0.0279231183,cover=28.7297382
			12:[y<-0.136991933] yes=19,no=20,missing=19,gain=2.8122046,cover=30.3442383
				19:[x<0.77647537] yes=29,no=30,missing=29,gain=1.50128639,cover=22.079607
					29:[x<-0.640570819] yes=41,no=42,missing=41,gain=3.84262109,cover=13.4264545
						41:leaf=0.0774169862,cover=6.83922148
						42:leaf=-0.224405184,cover=6.58723354
					30:[y<-0.345046997] yes=43,no=44,missing=43,gain=4.28668213,cover=8.65315247
						43:leaf=-0.14247708,cover=3.78340816
						44:leaf=0.242777213,cover=4.86974478
				20:[x<0.90233171] yes=31,no=32,missing=31,gain=5.39399529,cover=8.26462936
					31:leaf=-0.358169138,cover=5.67858362
					32:[y<0.0232036337] yes=45,no=46,missing=45,gain=0.723493278,cover=2.58604622
						45:leaf=0.207758829,cover=1.51964009
						46:leaf=-0.050605759,cover=1.06640601
booster[40]:
0:[y<-0.852000713] yes=1,no=2,missing=1,gain=0.349252135,cover=179.888718
	1:[3<0.5] yes=3,no=4,missing=3,gain=1.14166069,cover=27.6393414
		3:leaf=-0.177285016,cover=1.32058477
		4:[x<0.452339232] yes=7,no=8,missing=7,gain=1.13268733,cover=26.3187561
			7:[x<-0.395669997] yes=11,no=12,missing=11,gain=0.804292083,cover=25.0397873
				11:leaf=-0.129473373,cover=1.0194124
				12:[x<-0.112573326] yes=17,no=18,missing=17,gain=0.71937573,cover=24.0203743
					17:[y<-0.972411156] yes=27,no=28,missing=27,gain=0.166724086,cover=3.11309266
						27:leaf=0.0373573266,cover=1.01908934
						28:leaf=0.226267144,cover=2.0940032
					18:[x<0.139046103] yes=29,no=30,missing=29,gain=0.980600893,cover=20.9072819
						29:leaf=-0.00357479695,cover=13.414628
						30:leaf=0.126440719,cover=7.49265432
			8:leaf=-0.163446173,cover=1.27896833
	2:[y<-0.845739245] yes=5,no=6,missing=5,gain=0.862727821,cover=152.24939
		5:leaf=-0.186349049,cover=1.45351958
		6:[y<0.965872169] yes=9,no=10,missing=9,gain=0.341352701,cover=150.795868
			9:[y<0.913178682] yes=13,no=14,missing=13,gain=0.577430785,cover=128.145721
				13:[x<-0.875104964] yes=19,no=20,missing=19,gain=0.794744134,cover=116.179634
					19:[y<-0.215042323] yes=31,no=32,missing=31,gain=0.75107795,cover=7.79239321
						31:leaf=-0.0817537904,cover=1.34838688
						32:leaf=0.12107151,cover=6.44400644
					20:[x<-0.780059934] yes=33,no=34,missing=33,gain=1.03474033,cover=108.387245
						33:leaf=-0.111537851,cover=7.83712578
						34:leaf=-0.00441127922,cover=100.550117
				14:[y<0.919585824] yes=21,no=22,missing=21,gain=1.5677948,cover=11.9660788
					21:leaf=-0.278686434,cover=1.6584183
					22:[y<0.930684566] yes=35,no=36,missing=35,gain=1.74973738,cover=10.3076601
						35:leaf=0.194468394,cover=1.74785233
						36:leaf=-0.0774216279,cover=8.55980778
			10:[x<0.714056492] yes=15,no=16,missing=15,gain=1.01347244,cover=22.6501484
				15:[0<0.5] yes=23,no=24,missing=23,gain=0.946933448,cover=13.9096785
					23:[x<0.510331988] yes=37,no=38,missing=37,gain=0.654026091,cover=4.43837214
						37:leaf=-0.213506937,cover=2.13970184
						38:leaf=-0.00201425492,cover=2.29867029
					24:[y<0.98867619] yes=39,no=40,missing=39,gain=0.741184115,cover=9.47130585
						39:leaf=0.176635563,cover=1.40554392
						40:leaf=-0.0118574416,cover=8.06576252
				16:[y<1.15892565] yes=25,no=26,missing=25,gain=1.24306846,cover=8.74046993
					25:[y<1.03962803] yes=41,no=42,missing=41,gain=0.472023368,cover=7.67596292
						41:leaf=0.0479361527,cover=3.76950479
						42:leaf=0.206571564,cover=3.90645838
					26:leaf=-0.126282334,cover=1.06450677
booster[41]:
0:[y<1.18104422] yes=1,no=2,missing=1,gain=0.328869104,cover=178.095062
	1:[x<0.856813014] yes=3,no=4,missing=3,gain=0.373678625,cover=177.017166
		3:[x<0.777958035] yes=5,no=6,missing=5,gain=0.866267323,cover=162.478073
			5:[x<0.773216128] yes=9,no=10,missing=9,gain=1.01402843,cover=151.119232
				9:[y<-0.368775904] yes=15,no=16,missing=15,gain=0.534268737,cover=149.655487
					15:[x<0.744478226] yes=23,no=24,missing=23,gain=2.05442309,cover=65.3395004
						23:leaf=0.00546036148,cover=63.4982338
						24:leaf=0.266312152,cover=1.84127223
					16:[x<0.144463152] yes=25,no=26,missing=25,gain=2.43823051,cover=84.3159866
						25:leaf=0.00678493502,cover=67.4872894
						26:leaf=-0.117867045,cover=16.8286934
				10:leaf=-0.197581515,cover=1.46375179
			6:[y<-0.391555756] yes=11,no=12,missing=11,gain=1.8629775,cover=11.3588276
				11:leaf=-0.190433383,cover=1.13848388
				12:[y<-0.191786647] yes=17,no=18,missing=17,gain=1.61047065,cover=10.2203436
					17:leaf=0.264758885,cover=3.29050136
					18:[y<0.624078512] yes=27,no=28,missing=27,gain=2.97959065,cover=6.92984247
						27:leaf=-0.267920047,cover=1.33713043
						28:leaf=0.12676397,cover=5.59271193
		4:[y<-0.30672425] yes=7,no=8,missing=7,gain=3.41913295,cover=14.5390959
			7:leaf=-0.324944437,cover=2.21419144
			8:[y<0.0203774832] yes=13,no=14,missing=13,gain=2.57991028,cover=12.3249044
				13:[y<-0.190396756] yes=19,no=20,missing=19,gain=0.201000214,cover=3.78097701
					19:leaf=0.0455609038,cover=1.20816612
					20:leaf=0.23895888,cover=2.57281113
				14:[x<0.866974354] yes=21,no=22,missing=21,gain=0.965542257,cover=8.54392719
					21:leaf=-0.235757038,cover=1.39305103
					22:[x<0.884478807] yes=29,no=30,missing=29,gain=0.831595361,cover=7.15087605
						29:leaf=0.151834473,cover=1.14080274
						30:leaf=-0.0620242879,cover=6.01007318
	2:leaf=0.115345873,cover=1.07789528
booster[42]:
0:[y<0.416613013] yes=1,no=2,missing=1,gain=0.323414534,cover=176.267654
	1:[0<0.5] yes=3,no=4,missing=3,gain=1.03585052,cover=116.272209
		3:[1<0.5] yes=7,no=8,missing=7,gain=0.885478914,cover=114.689331
			7:[y<0.366942346] yes=11,no=12,missing=11,gain=0.58794558,cover=113.259727
				11:[y<0.337128282] yes=17,no=18,missing=17,gain=0.555597723,cover=111.254883
					17:[y<0.193785116] yes=27,no=28,missing=27,gain=0.559874833,cover=109.929283
						27:leaf=0.00324285869,cover=102.27504
						28:leaf=-0.0762014911,cover=7.65424013
					18:leaf=0.145237073,cover=1.32559967
				12:leaf=-0.13436377,cover=2.00484872
			8:leaf=-0.186503991,cover=1.42960477
		4:leaf=-0.199523389,cover=1.58287132
	2:[3<0.5] yes=5,no=6,missing=5,gain=1.15636885,cover=59.9954567
		5:[y<0.87797749] yes=9,no=10,missing=9,gain=0.623536527,cover=58.4814491
			9:[x<-0.0201038886] yes=13,no=14,missing=13,gain=1.27094412,cover=19.7525959
				13:[x<-0.0383258164] yes=19,no=20,missing=19,gain=0.766543388,cover=10.481883
					19:[x<-0.111040741] yes=29,no=30,missing=29,gain=0.761292458,cover=9.47202396
						29:leaf=-0.0294545833,cover=6.81959581
						30:leaf=0.137177572,cover=2.65242767
					20:leaf=-0.176491618,cover=1.00985968
				14:[x<0.815225244] yes=21,no=22,missing=21,gain=1.18061852,cover=9.2707119
					21:[y<0.609431148] yes=31,no=32,missing=31,gain=0.191306591,cover=7.72310257
						31:leaf=0.0944086909,cover=3.77767563
						32:leaf=0.234736547,cover=3.94542694
					22:leaf=-0.0662376955,cover=1.54760957
			10:[y<0.896172643] yes=15,no=16,missing=15,gain=1.0953927,cover=38.7288513
				15:[x<0.717813551] yes=23,no=24,missing=23,gain=0.106739759,cover=2.61169815
					23:leaf=-0.205554515,cover=1.19964969
					24:leaf=-0.0472182631,cover=1.41204846
				16:[2<0.5] yes=25,no=26,missing=25,gain=1.0549736,cover=36.1171532
					25:[y<0.913178682] yes=33,no=34,missing=33,gain=0.962781131,cover=34.7644653
						33:leaf=0.189949244,cover=2.05546689
						34:leaf=0.0132678049,cover=32.7089996
					26:leaf=-0.178943738,cover=1.35268784
		6:leaf=-0.184417143,cover=1.51400721
booster[43]:
0:[y<-1.02289152] yes=1,no=2,missing=1,gain=0.280258745,cover=174.591858
	1:leaf=0.0897439346,cover=1.90250933
	2:[y<0.958931684] yes=3,no=4,missing=3,gain=0.281175792,cover=172.689346
		3:[y<0.946288109] yes=5,no=6,missing=5,gain=0.716432393,cover=148.977005
			5:[y<0.93369174] yes=9,no=10,missing=9,gain=0.683760643,cover=145.248199
				9:[x<0.837707639] yes=17,no=18,missing=17,gain=0.512704074,cover=144.119827
					17:[x<0.818613112] yes=25,no=26,missing=25,gain=0.599245369,cover=133.676651
						25:leaf=-0.0056406376,cover=131.463425
						26:leaf=0.125483975,cover=2.21321678
					18:[y<-0.30672425] yes=27,no=28,missing=27,gain=2.17667913,cover=10.4431725
						27:leaf=-0.285405636,cover=2.05903292
						28:leaf=0.00921218097,cover=8.38414001
				10:leaf=0.163530409,cover=1.12837744
			6:[y<0.95507592] yes=11,no=12,missing=11,gain=0.212010562,cover=3.72880864
				11:leaf=-0.167370647,cover=2.25416946
				12:leaf=-0.0169930048,cover=1.47463918
		4:[x<0.514303863] yes=7,no=8,missing=7,gain=0.777501822,cover=23.7123356
			7:[x<-0.547454357] yes=13,no=14,missing=13,gain=1.26751125,cover=11.8561697
				13:[x<-0.802214384] yes=19,no=20,missing=19,gain=0.942326069,cover=9.99770737
					19:[y<1.10381937] yes=29,no=30,missing=29,gain=1.09128451,cover=4.98023701
						29:leaf=-0.13865155,cover=3.76842332
						30:leaf=0.121070214,cover=1.21181381
					20:[y<1.09873867] yes=31,no=32,missing=31,gain=0.621717095,cover=5.01746988
						31:leaf=0.161790043,cover=3.42470837
						32:leaf=-0.0376223326,cover=1.59276164
				14:leaf=-0.204490677,cover=1.85846257
			8:[y<1.02947032] yes=15,no=16,missing=15,gain=1.0500474,cover=11.8561649
				15:[y<0.978565872] yes=21,no=22,missing=21,gain=0.0902373791,cover=5.08748484
					21:leaf=0.0639059246,cover=1.95069695
					22:leaf=0.200525478,cover=3.13678789
				16:[y<1.04992664] yes=23,no=24,missing=23,gain=2.06507349,cover=6.7686801
					23:leaf=-0.198917598,cover=2.12916827
					24:[x<0.888440609] yes=33,no=34,missing=33,gain=1.42002606,cover=4.63951159
						33:leaf=0.20482032,cover=3.03035665
						34:leaf=-0.0894640386,cover=1.60915506
booster[44]:
0:[x<0.989156604] yes=1,no=2,missing=1,gain=0.270729721,cover=173.447037
	1:[x<0.884478807] yes=3,no=4,missing=3,gain=0.276956022,cover=171.822449
		3:[x<0.866974354] yes=5,no=6,missing=5,gain=0.824386001,cover=163.477402
			5:[x<0.856813014] yes=9,no=10,missing=9,gain=0.857200205,cover=161.972076
				9:[y<1.10804296] yes=13,no=14,missing=13,gain=0.527974844,cover=159.740936
					13:[y<1.09873867] yes=19,no=20,missing=19,gain=0.721457243,cover=156.903046
						19:leaf=0.000353735435,cover=154.847977
						20:leaf=-0.146861032,cover=2.05508137
					14:[0<0.5] yes=21,no=22,missing=21,gain=0.0216060281,cover=2.8378911
						21:leaf=0.0319615006,cover=1.1183064
						22:leaf=0.130510688,cover=1.7195847
				10:[x<0.86322391] yes=15,no=16,missing=15,gain=0.09758389,cover=2.23112655
					15:leaf=-0.203911826,cover=1.00102413
					16:leaf=-0.0429028794,cover=1.23010242
			6:leaf=0.170494914,cover=1.50533104
		4:[y<-0.187731564] yes=7,no=8,missing=7,gain=1.5213455,cover=8.34504986
			7:leaf=-0.241718963,cover=1.73941112
			8:[y<0.0203774832] yes=11,no=12,missing=11,gain=1.73373818,cover=6.60563898
				11:leaf=0.209499285,cover=1.87146962
				12:[x<0.899690628] yes=17,no=18,missing=17,gain=0.562156975,cover=4.73416948
					17:leaf=-0.189728588,cover=1.33628356
					18:[y<0.88544488] yes=23,no=24,missing=23,gain=0.812658489,cover=3.39788604
						23:leaf=-0.144402757,cover=1.10990167
						24:leaf=0.0941553563,cover=2.28798437
	2:leaf=0.0939246863,cover=1.62457907
booster[45]:
0:[x<-0.846228123] yes=1,no=2,missing=1,gain=0.19304724,cover=172.897476
	1:[y<0.992032707] yes=3,no=4,missing=3,gain=0.568476319,cover=14.9185095
		3:[y<0.951251626] yes=7,no=8,missing=7,gain=1.55654573,cover=12.1182127
			7:[y<-0.298247755] yes=13,no=14,missing=13,gain=0.709929645,cover=10.515069
				13:leaf=-0.115236364,cover=1.1906836
				14:[y<0.0157257989] yes=17,no=18,missing=17,gain=0.486993313,cover=9.32438564
					17:[x<-0.892905295] yes=21,no=22,missing=21,gain=0.0705931187,cover=4.44078541
						21:leaf=0.168316722,cover=2.59972095
						22:leaf=0.0498206541,cover=1.84106433
					18:[y<0.840073586] yes=23,no=24,missing=23,gain=1.63821387,cover=4.88360023
						23:leaf=-0.143770412,cover=2.38948369
						24:leaf=0.14899464,cover=2.49411678
			8:leaf=-0.210992083,cover=1.60314333
		4:[y<1.10119319] yes=9,no=10,missing=9,gain=0.294623017,cover=2.80029631
			9:leaf=0.183413461,cover=1.73442149
			10:leaf=-0.00131059624,cover=1.06587481
	2:[x<-0.837919652] yes=5,no=6,missing=5,gain=1.13533914,cover=157.978958
		5:leaf=-0.214411244,cover=1.28857708
		6:[x<-0.82933569] yes=11,no=12,missing=11,gain=0.497516602,cover=156.690384
			11:leaf=0.138697818,cover=1.24435878
			12:[x<-0.823708236] yes=15,no=16,missing=15,gain=1.08071434,cover=155.44603
				15:leaf=-0.213975325,cover=1.16647875
				16:[x<-0.803921819] yes=19,no=20,missing=19,gain=1.19164491,cover=154.279556
					19:leaf=0.190160722,cover=1.89267123
					20:[x<-0.774440765] yes=25,no=26,missing=25,gain=0.98057133,cover=152.386887
						25:leaf=-0.122090101,cover=5.09725952
						26:leaf=0.000678257435,cover=147.289627
booster[46]:
0:[y<-1.00943112] yes=1,no=2,missing=1,gain=0.193500489,cover=172.177963
	1:[x<0.0819305182] yes=3,no=4,missing=3,gain=0.366831362,cover=2.84924507
		3:leaf=0.125999421,cover=1.80286729
		4:leaf=-0.0494633205,cover=1.04637766
	2:[y<-0.990174711] yes=5,no=6,missing=5,gain=0.374475271,cover=169.32872
		5:[y<-1.0002476] yes=7,no=8,missing=7,gain=0.017601639,cover=3.03890395
			7:leaf=-0.026701333,cover=1.14376521
			8:leaf=-0.109729856,cover=1.89513886
		6:[y<-0.958773077] yes=9,no=10,missing=9,gain=0.427633166,cover=166.28981
			9:[x<0.108901873] yes=11,no=12,missing=11,gain=0.172332585,cover=3.55726218
				11:[x<-0.0966926739] yes=15,no=16,missing=15,gain=0.306013286,cover=2.48733401
					15:leaf=-0.0078303488,cover=1.02337718
					16:leaf=0.180113062,cover=1.46395683
				12:leaf=-0.00799596682,cover=1.06992829
			10:[y<-0.942542315] yes=13,no=14,missing=13,gain=0.360034674,cover=162.732544
				13:[x<-0.0417866334] yes=17,no=18,missing=17,gain=0.310183764,cover=4.54812336
					17:leaf=0.0378903076,cover=1.08473158
					18:[x<0.155779228] yes=21,no=22,missing=21,gain=0.461645126,cover=3.46339154
						21:leaf=-0.177893296,cover=2.13812566
						22:leaf=0.0199721474,cover=1.325266
				14:[y<-0.891354263] yes=19,no=20,missing=19,gain=0.480314761,cover=158.184433
					19:[y<-0.913812399] yes=23,no=24,missing=23,gain=0.538941264,cover=7.80523109
						23:leaf=-0.00749386335,cover=4.23715734
						24:leaf=0.139388934,cover=3.56807399
					20:[y<-0.881571829] yes=25,no=26,missing=25,gain=0.70226866,cover=150.379196
						25:leaf=-0.178331032,cover=1.05670846
						26:leaf=-0.00180930749,cover=149.322495
booster[47]:
0:[x<0.989156604] yes=1,no=2,missing=1,gain=0.18114011,cover=171.991089
	1:[x<0.898664832] yes=3,no=4,missing=3,gain=0.256433338,cover=170.4048
		3:[y<1.10310328] yes=5,no=6,missing=5,gain=0.666385889,cover=164.69725
			5:[y<1.09873867] yes=9,no=10,missing=9,gain=0.807720482,cover=160.460526
				9:[y<1.05118942] yes=15,no=16,missing=15,gain=0.337523878,cover=159.27684
					15:[y<1.02947032] yes=19,no=20,missing=19,gain=0.506189108,cover=157.018646
						19:leaf=0.000459987205,cover=153.325821
						20:leaf=-0.0995619595,cover=3.69281793
					16:[y<1.07107127] yes=21,no=22,missing=21,gain=0.00247186422,cover=2.25820398
						21:leaf=0.111496061,cover=1.24419153
						22:leaf=0.0295145307,cover=1.01401246
				10:leaf=-0.184246063,cover=1.18367982
			6:[x<-0.614830256] yes=11,no=12,missing=11,gain=0.337384284,cover=4.23672724
				11:leaf=0.163899451,cover=2.30709457
				12:leaf=0.00394212082,cover=1.92963254
		4:[y<-0.186299235] yes=7,no=8,missing=7,gain=1.3328675,cover=5.70754814
			7:leaf=-0.262178749,cover=1.04207563
			8:[y<1.05932403] yes=13,no=14,missing=13,gain=1.01335144,cover=4.66547251
				13:[x<0.955021858] yes=17,no=18,missing=17,gain=0.286717087,cover=3.64024734
					17:leaf=0.138565063,cover=2.6108532
					18:leaf=-0.0224989448,cover=1.02939415
				14:leaf=-0.157039538,cover=1.02522516
	2:leaf=0.0780435652,cover=1.58628571
booster[48]:
