booster[0]:
0:[x<1.8093009] yes=1,no=2,missing=1,gain=6.5997653,cover=700
	1:[y<1.64646339] yes=3,no=4,missing=3,gain=7.12045002,cover=680.75
		3:leaf=0.00654362468,cover=595
		4:leaf=0.0985590816,cover=85.75
	2:[y<-1.3646152] yes=5,no=6,missing=5,gain=30.6188755,cover=19.25
		5:leaf=0.329032272,cover=6.75
		6:leaf=-0.422222227,cover=12.5
booster[1]:
0:[x<1.8093009] yes=1,no=2,missing=1,gain=3.45809388,cover=699.065308
	1:[y<1.79052258] yes=3,no=4,missing=3,gain=3.95740962,cover=680.535706
		3:leaf=0.00679118745,cover=637.141174
		4:leaf=0.0994457081,cover=43.3945312
	2:[y<-1.05596733] yes=5,no=6,missing=5,gain=19.1640434,cover=18.5295982
		5:leaf=0.211803779,cover=8.24482059
		6:leaf=-0.372910112,cover=10.2847786
booster[2]:
0:[x<1.90755856] yes=1,no=2,missing=1,gain=2.14418721,cover=697.408325
	1:[y<1.64646339] yes=3,no=4,missing=3,gain=1.83048558,cover=689.102539
		3:leaf=0.00247114338,cover=603.03595
		4:leaf=0.0490094014,cover=86.0666122
	2:[y<-1.60022879] yes=5,no=6,missing=5,gain=13.7565603,cover=8.30574989
		5:leaf=0.292659789,cover=3.25603867
		6:leaf=-0.416073591,cover=5.0497117
booster[3]:
0:[x<-0.958717823] yes=1,no=2,missing=1,gain=1.95623088,cover=696.083496
	1:[3<0.5] yes=3,no=4,missing=3,gain=106.938484,cover=185.552231
		3:leaf=0.114165403,cover=164.074478
		4:leaf=-0.583350718,cover=21.4777489
	2:[0<0.5] yes=5,no=6,missing=5,gain=41.1722298,cover=510.531281
		5:leaf=0.0383837856,cover=405.096741
		6:leaf=-0.171234488,cover=105.434563
booster[4]:
0:[x<0.865906835] yes=1,no=2,missing=1,gain=1.78417552,cover=692.831482
	1:[3<0.5] yes=3,no=4,missing=3,gain=48.5669975,cover=439.222351
		3:leaf=0.0593572147,cover=365.116577
		4:leaf=-0.205483302,cover=74.1057663
	2:[1<0.5] yes=5,no=6,missing=5,gain=130.449509,cover=253.609161
		5:leaf=0.0626445785,cover=223.472504
		6:leaf=-0.592622936,cover=30.1366539
booster[5]:
0:[3<0.5] yes=1,no=2,missing=1,gain=2.68508625,cover=687.546143
	1:[y<-0.427408934] yes=3,no=4,missing=3,gain=88.9925461,cover=518.827026
		3:leaf=-0.172929421,cover=188.962418
		4:leaf=0.084695667,cover=329.864594
	2:[y<-0.341254354] yes=5,no=6,missing=5,gain=251.746918,cover=168.719116
		5:leaf=0.261977822,cover=121.670586
		6:leaf=-0.548134565,cover=47.0485344
booster[6]:
0:[x<0.865906835] yes=1,no=2,missing=1,gain=4.03811836,cover=677.924316
	1:[2<0.5] yes=3,no=4,missing=3,gain=56.5828857,cover=431.963348
		3:leaf=0.0672914982,cover=358.100128
		4:leaf=-0.219431087,cover=73.8632202
	2:[0<0.5] yes=5,no=6,missing=5,gain=119.414543,cover=245.960968
		5:leaf=0.0532290228,cover=212.737488
		6:leaf=-0.550382495,cover=33.2234688
booster[7]:
0:[x<1.26114225] yes=1,no=2,missing=1,gain=2.58101559,cover=673.623291
	1:[3<0.5] yes=3,no=4,missing=3,gain=14.3848858,cover=569.319519
		3:leaf=0.0311159678,cover=458.801941
		4:leaf=-0.0889906213,cover=110.517586
	2:[3<0.5] yes=5,no=6,missing=5,gain=70.109436,cover=104.303787
		5:leaf=-0.28069371,cover=53.4768867
		6:leaf=0.206794813,cover=50.8269005
booster[8]:
0:[x<1.90755856] yes=1,no=2,missing=1,gain=1.81241906,cover=667.685669
	1:[x<-0.750507772] yes=3,no=4,missing=3,gain=1.79023552,cover=661.646851
		3:leaf=-0.0169864576,cover=278.242401
		4:leaf=0.014575378,cover=383.40448
	2:[y<-1.60022879] yes=5,no=6,missing=5,gain=5.83264065,cover=6.03881884
		5:leaf=0.18390663,cover=2.24170589
		6:leaf=-0.346924961,cover=3.7971127
booster[9]:
0:[x<1.32881212] yes=1,no=2,missing=1,gain=1.65657556,cover=666.95697
	1:[y<1.17276204] yes=3,no=4,missing=3,gain=5.34054136,cover=580.216187
		3:leaf=-0.0201944038,cover=322.942902
		4:leaf=0.0376412459,cover=257.273285
	2:[3<0.5] yes=5,no=6,missing=5,gain=31.5570946,cover=86.7407684
		5:leaf=-0.218374416,cover=43.0953941
		6:leaf=0.139524207,cover=43.6453743
booster[10]:
0:[x<0.865906835] yes=1,no=2,missing=1,gain=1.30786359,cover=662.075989
	1:[2<0.5] yes=3,no=4,missing=3,gain=31.0523987,cover=430.053253
		3:leaf=0.0463717729,cover=355.830963
		4:leaf=-0.165727869,cover=74.2222748
	2:[0<0.5] yes=5,no=6,missing=5,gain=62.5342674,cover=232.022751
		5:leaf=0.040196199,cover=203.82959
		6:leaf=-0.429141581,cover=28.1931553
booster[11]:
0:[x<-0.750507772] yes=1,no=2,missing=1,gain=1.91702783,cover=655.007629
	1:[2<0.5] yes=3,no=4,missing=3,gain=112.802628,cover=276.992828
		3:leaf=0.0513792485,cover=243.915482
		4:leaf=-0.531186223,cover=33.0773582
	2:[0<0.5] yes=5,no=6,missing=5,gain=66.6500778,cover=378.014771
		5:leaf=0.0654040799,cover=322.54895
		6:leaf=-0.287832022,cover=55.4658318
booster[12]:
0:[3<0.5] yes=1,no=2,missing=1,gain=3.36571956,cover=644.904785
	1:[y<-0.427408934] yes=3,no=4,missing=3,gain=39.9002762,cover=489.248352
		3:leaf=-0.103008963,cover=176.556351
		4:leaf=0.074961029,cover=312.692017
	2:[y<-0.379621834] yes=5,no=6,missing=5,gain=132.59935,cover=155.656464
		5:leaf=0.135440484,cover=111.233017
		6:leaf=-0.47210142,cover=44.4234428
booster[13]:
0:[x<0.865906835] yes=1,no=2,missing=1,gain=3.60210133,cover=630.929626
	1:[3<0.5] yes=3,no=4,missing=3,gain=22.08885,cover=415.627502
		3:leaf=0.0440673493,cover=351.440979
		4:leaf=-0.146041766,cover=64.1865158
	2:[1<0.5] yes=5,no=6,missing=5,gain=63.8635101,cover=215.302109
		5:leaf=0.0285460781,cover=188.980316
		6:leaf=-0.462036848,cover=26.3217926
booster[14]:
0:[x<0.865906835] yes=1,no=2,missing=1,gain=1.98765004,cover=623.704346
	1:[y<1.81314278] yes=3,no=4,missing=3,gain=18.2106667,cover=413.16449
		3:leaf=0.0210773312,cover=401.67511
		4:leaf=-0.346763194,cover=11.4893904
	2:[1<0.5] yes=5,no=6,missing=5,gain=40.2386551,cover=210.539871
		5:leaf=0.020109335,cover=188.340332
		6:leaf=-0.398531318,cover=22.1995392
booster[15]:
0:[x<-0.750507772] yes=1,no=2,missing=1,gain=1.96268368,cover=618.779846
	1:[2<0.5] yes=3,no=4,missing=3,gain=67.3133698,cover=264.299652
		3:leaf=0.032687977,cover=234.751282
		4:leaf=-0.440630049,cover=29.548357
	2:[0<0.5] yes=5,no=6,missing=5,gain=43.2366867,cover=354.480164
		5:leaf=0.0561384633,cover=302.27124
		6:leaf=-0.237062827,cover=52.2089272
booster[16]:
0:[3<0.5] yes=1,no=2,missing=1,gain=2.83675241,cover=607.449097
	1:[x<0.51134491] yes=3,no=4,missing=3,gain=25.0319977,cover=465.406372
		3:leaf=0.0603634901,cover=300.22641
		4:leaf=-0.0846765637,cover=165.179947
	2:[x<0.500460148] yes=5,no=6,missing=5,gain=97.5708771,cover=142.042725
		5:leaf=-0.471462518,cover=34.4405251
		6:leaf=0.101855934,cover=107.602203
booster[17]:
0:[y<1.03026998] yes=1,no=2,missing=1,gain=2.73548174,cover=596.541809
	1:[0<0.5] yes=3,no=4,missing=3,gain=117.25396,cover=312.682251
		3:leaf=0.0480489098,cover=273.694641
		4:leaf=-0.501799762,cover=38.9876099
	2:[1<0.5] yes=5,no=6,missing=5,gain=217.722,cover=283.859589
		5:leaf=0.110978551,cover=253.244293
		6:leaf=-0.723813593,cover=30.6153126
booster[18]:
0:[3<0.5] yes=1,no=2,missing=1,gain=4.53696537,cover=587.143799
	1:[y<-0.427408934] yes=3,no=4,missing=3,gain=20.199255,cover=453.380676
		3:leaf=-0.0732310191,cover=161.775192
		4:leaf=0.0586118661,cover=291.605499
	2:[y<-0.341254354] yes=5,no=6,missing=5,gain=73.0771179,cover=133.763138
		5:leaf=0.0771101937,cover=100.501022
		6:leaf=-0.429701269,cover=33.2621155
booster[19]:
0:[x<0.865906835] yes=1,no=2,missing=1,gain=4.14032602,cover=575.397827
	1:[y<1.73697627] yes=3,no=4,missing=3,gain=11.179409,cover=389.787811
		3:leaf=0.027887404,cover=365.932434
		4:leaf=-0.180034295,cover=23.8553581
	2:[0<0.5] yes=5,no=6,missing=5,gain=16.7257996,cover=185.610001
		5:leaf=-0.0124398442,cover=171.070236
		6:leaf=-0.337596148,cover=14.5397758
booster[20]:
0:[x<1.43029213] yes=1,no=2,missing=1,gain=3.07562613,cover=572.259521
	1:[3<0.5] yes=3,no=4,missing=3,gain=4.19965267,cover=523.096497
		3:leaf=0.0172733609,cover=424.280304
		4:leaf=-0.0511051975,cover=98.8161621
	2:[y<1.38932645] yes=5,no=6,missing=5,gain=19.8067951,cover=49.1630325
		5:leaf=0.0231658183,cover=39.6256409
		6:leaf=-0.439091355,cover=9.53739071
booster[21]:
0:[x<1.78963172] yes=1,no=2,missing=1,gain=2.15923238,cover=570.463684
	1:[y<1.79462171] yes=3,no=4,missing=3,gain=2.69445324,cover=560.03833
		3:leaf=-0.00478500733,cover=526.792603
		4:leaf=0.0820520222,cover=33.2457275
	2:[y<1.13817787] yes=5,no=6,missing=5,gain=2.18416762,cover=10.4253178
		5:leaf=-0.0316640101,cover=7.49053383
		6:leaf=-0.312734097,cover=2.93478417
booster[22]:
0:[x<-0.753519297] yes=1,no=2,missing=1,gain=1.81473196,cover=569.745972
	1:[2<0.5] yes=3,no=4,missing=3,gain=51.0239067,cover=244.920822
		3:leaf=0.027035391,cover=218.646332
		4:leaf=-0.408043116,cover=26.2744961
	2:[0<0.5] yes=5,no=6,missing=5,gain=13.8007317,cover=324.825134
		5:leaf=0.0365596674,cover=284.149689
		6:leaf=-0.148274854,cover=40.6754456
booster[23]:
0:[x<0.865906835] yes=1,no=2,missing=1,gain=2.5133934,cover=560.496338
	1:[y<1.74561453] yes=3,no=4,missing=3,gain=6.64045572,cover=381.665741
		3:leaf=0.0210010447,cover=362.486511
		4:leaf=-0.155826718,cover=19.1791992
	2:[1<0.5] yes=5,no=6,missing=5,gain=17.9262161,cover=178.830612
		5:leaf=-0.00185703242,cover=164.026581
		6:leaf=-0.336415052,cover=14.8040371
booster[24]:
0:[3<0.5] yes=1,no=2,missing=1,gain=2.57269287,cover=556.825623
	1:[y<1.03026998] yes=3,no=4,missing=3,gain=15.3187304,cover=432.322052
		3:leaf=-0.05344465,cover=194.002365
		4:leaf=0.0598324575,cover=238.319687
	2:[x<0.500460148] yes=5,no=6,missing=5,gain=60.0058937,cover=124.50354
		5:leaf=-0.431617647,cover=26.4939461
		6:leaf=0.0694259256,cover=98.0095978
booster[25]:
0:[x<0.865906835] yes=1,no=2,missing=1,gain=3.60885692,cover=547.374451
	1:[2<0.5] yes=3,no=4,missing=3,gain=5.93646288,cover=374.440521
		3:leaf=0.0311497357,cover=313.527832
		4:leaf=-0.0704982579,cover=60.912693
	2:[1<0.5] yes=5,no=6,missing=5,gain=11.5583305,cover=172.933929
		5:leaf=-0.0161107779,cover=161.35817
		6:leaf=-0.314854085,cover=11.5757523
booster[26]:
0:[1<0.5] yes=1,no=2,missing=1,gain=1.94387472,cover=543.683838
	1:[y<0.89467901] yes=3,no=4,missing=3,gain=56.3854561,cover=391.64267
		3:leaf=-0.152377397,cover=156.080185
		4:leaf=0.0794846043,cover=235.562485
	2:[y<0.485189795] yes=5,no=6,missing=5,gain=159.388992,cover=152.041168
		5:leaf=0.175304919,cover=123.487564
		6:leaf=-0.599712491,cover=28.5535946
booster[27]:
0:[x<-0.753519297] yes=1,no=2,missing=1,gain=2.47754765,cover=536.353516
	1:[2<0.5] yes=3,no=4,missing=3,gain=30.364624,cover=224.444641
		3:leaf=0.00986756478,cover=204.186554
		4:leaf=-0.366837651,cover=20.2580833
	2:[0<0.5] yes=5,no=6,missing=5,gain=10.8780985,cover=311.908875
		5:leaf=0.0366545431,cover=273.826416
		6:leaf=-0.132519379,cover=38.0824661
booster[28]:
0:[x<0.865906835] yes=1,no=2,missing=1,gain=1.69614708,cover=528.487488
	1:[x<-0.753519297] yes=3,no=4,missing=3,gain=5.58590937,cover=357.768097
		3:leaf=-0.0198185146,cover=219.925919
		4:leaf=0.0569772422,cover=137.842194
	2:[0<0.5] yes=5,no=6,missing=5,gain=9.34288788,cover=170.71936
		5:leaf=-0.00883534085,cover=161.591034
		6:leaf=-0.305929512,cover=9.12832832
booster[29]:
0:[x<1.90755856] yes=1,no=2,missing=1,gain=1.57979536,cover=526.834351
	1:[y<-1.89344347] yes=3,no=4,missing=3,gain=1.69340432,cover=523.272766
		3:leaf=-0.0990884379,cover=14.1124506
		4:leaf=0.00281135389,cover=509.160309
	2:[y<-1.60022879] yes=5,no=6,missing=5,gain=2.99906349,cover=3.56162882
		5:leaf=0.136863381,cover=1.2248975
		6:leaf=-0.33383128,cover=2.33673143
booster[30]:
0:[y<1.79462171] yes=1,no=2,missing=1,gain=1.21983218,cover=526.386414
	1:[x<0.865906835] yes=3,no=4,missing=3,gain=3.23733068,cover=496.208893
		3:leaf=0.0110077886,cover=346.147247
		4:leaf=-0.0416066423,cover=150.06163
	2:[2<0.5] yes=5,no=6,missing=5,gain=9.42020607,cover=30.1775246
		5:leaf=-0.143276453,cover=11.981185
		6:leaf=0.188193589,cover=18.1963406
booster[31]:
0:[x<1.13154197] yes=1,no=2,missing=1,gain=1.03557026,cover=525.426208
	1:[x<0.865906835] yes=3,no=4,missing=3,gain=3.08789611,cover=432.848236
		3:leaf=0.00465070689,cover=357.536774
		4:leaf=-0.0618150868,cover=75.3114777
	2:[y<-1.46573186] yes=5,no=6,missing=5,gain=15.1348152,cover=92.5779648
		5:leaf=-0.391380906,cover=6.17882967
		6:leaf=0.0618776195,cover=86.3991318
booster[32]:
0:[x<-0.753519297] yes=1,no=2,missing=1,gain=1.21102083,cover=525.570068
	1:[3<0.5] yes=3,no=4,missing=3,gain=25.355114,cover=220.351273
		3:leaf=0.0118878447,cover=204.020401
		4:leaf=-0.366027653,cover=16.330862
	2:[1<0.5] yes=5,no=6,missing=5,gain=5.2390933,cover=305.218781
		5:leaf=0.0281481594,cover=258.954926
		6:leaf=-0.0804494098,cover=46.263855
booster[33]:
0:[x<1.36705816] yes=1,no=2,missing=1,gain=1.03632426,cover=520.706787
	1:[x<1.13154197] yes=3,no=4,missing=3,gain=3.36235499,cover=465.418518
		3:leaf=-0.00391879352,cover=429.481598
		4:leaf=0.0903998166,cover=35.9369164
	2:[y<1.43982553] yes=5,no=6,missing=5,gain=14.6957903,cover=55.2882576
		5:leaf=0.0283794105,cover=46.9157715
		6:leaf=-0.382615179,cover=8.37248802
booster[34]:
0:[y<1.79052258] yes=1,no=2,missing=1,gain=0.908757865,cover=519.036194
	1:[y<1.74561453] yes=3,no=4,missing=3,gain=2.6538043,cover=489.258911
		3:leaf=-0.000986012979,cover=480.554718
		4:leaf=-0.159447551,cover=8.70419216
	2:[2<0.5] yes=5,no=6,missing=5,gain=6.68689203,cover=29.7772636
		5:leaf=-0.114819415,cover=12.3212996
		6:leaf=0.16462028,cover=17.4559631
booster[35]:
0:[x<0.865906835] yes=1,no=2,missing=1,gain=1.11628783,cover=517.94342
	1:[2<0.5] yes=3,no=4,missing=3,gain=3.24604201,cover=354.363007
		3:leaf=0.0210516006,cover=299.777924
		4:leaf=-0.0578706674,cover=54.5850639
	2:[1<0.5] yes=5,no=6,missing=5,gain=7.1922698,cover=163.580444
		5:leaf=-0.00647193799,cover=156.112839
		6:leaf=-0.290408671,cover=7.46759558
booster[36]:
0:[x<-0.753519297] yes=1,no=2,missing=1,gain=0.880734563,cover=515.40094
	1:[2<0.5] yes=3,no=4,missing=3,gain=21.0097847,cover=215.659393
		3:leaf=0.0116347503,cover=199.847336
		4:leaf=-0.337509155,cover=15.8120518
	2:[0<0.5] yes=5,no=6,missing=5,gain=5.73197222,cover=299.741577
		5:leaf=0.0247946605,cover=265.065247
		6:leaf=-0.103274949,cover=34.6763306
booster[37]:
0:[x<0.865906835] yes=1,no=2,missing=1,gain=1.12930501,cover=509.163452
	1:[y<-1.72808731] yes=3,no=4,missing=3,gain=2.63416409,cover=348.463959
		3:leaf=0.0901349559,cover=31.2205009
		4:leaf=0.000105840314,cover=317.243439
	2:[0<0.5] yes=5,no=6,missing=5,gain=5.68486929,cover=160.699493
		5:leaf=-0.00963056553,cover=154.411133
		6:leaf=-0.280850142,cover=6.28836298
booster[38]:
0:[y<1.03026998] yes=1,no=2,missing=1,gain=0.959440768,cover=507.80127
	1:[2<0.5] yes=3,no=4,missing=3,gain=60.6200562,cover=272.715485
		3:leaf=0.0380195156,cover=241.778427
		4:leaf=-0.401648909,cover=30.9370747
	2:[1<0.5] yes=5,no=6,missing=5,gain=74.933548,cover=235.085785
		5:leaf=0.0715205297,cover=210.535187
		6:leaf=-0.47238782,cover=24.5505981
booster[39]:
0:[1<0.5] yes=1,no=2,missing=1,gain=1.25735021,cover=495.922028
	1:[y<0.438929588] yes=3,no=4,missing=3,gain=22.7125092,cover=358.617004
		3:leaf=-0.103461578,cover=143.374329
		4:leaf=0.0502033941,cover=215.242676
	2:[y<0.485189795] yes=5,no=6,missing=5,gain=58.4012871,cover=137.305023
		5:leaf=0.108304448,cover=115.407219
		6:leaf=-0.415838093,cover=21.8978062
booster[40]:
0:[x<-0.753519297] yes=1,no=2,missing=1,gain=1.72819901,cover=487.404907
	1:[3<0.5] yes=3,no=4,missing=3,gain=16.7763443,cover=198.41066
		3:leaf=0.000726227765,cover=185.10083
		4:leaf=-0.336419582,cover=13.3098249
	2:[y<-0.774633527] yes=5,no=6,missing=5,gain=4.84529495,cover=288.994263
		5:leaf=0.063488178,cover=106.155876
		6:leaf=-0.0167865772,cover=182.838379
booster[41]:
0:[y<-1.8937571] yes=1,no=2,missing=1,gain=1.1935842,cover=483.588501
	1:[x<0.944110751] yes=3,no=4,missing=3,gain=3.97238445,cover=14.2071447
		3:leaf=0.00178096828,cover=11.5360308
		4:leaf=-0.356363744,cover=2.67111373
	2:[x<1.93058586] yes=5,no=6,missing=5,gain=1.35569477,cover=469.381378
		5:leaf=0.002064317,cover=467.641205
		6:leaf=-0.209567368,cover=1.74016988
booster[42]:
0:[x<-0.753519297] yes=1,no=2,missing=1,gain=1.05095112,cover=483.607391
	1:[2<0.5] yes=3,no=4,missing=3,gain=13.8178749,cover=195.476318
		3:leaf=0.00233757449,cover=183.802521
		4:leaf=-0.321518183,cover=11.6738081
	2:[0<0.5] yes=5,no=6,missing=5,gain=3.83406138,cover=288.131073
		5:leaf=0.0223223716,cover=255.629776
		6:leaf=-0.0856033266,cover=32.5013084
booster[43]:
0:[y<-1.8937571] yes=1,no=2,missing=1,gain=0.778784752,cover=479.018433
	1:[x<0.944110751] yes=3,no=4,missing=3,gain=2.21584082,cover=14.3649235
		3:leaf=-0.00143793353,cover=11.4567871
		4:leaf=-0.263165981,cover=2.90813589
	2:[y<-1.86726737] yes=5,no=6,missing=5,gain=1.26089156,cover=464.653503
		5:leaf=0.167538181,cover=3.03405595
		6:leaf=-0.000913399621,cover=461.619446
booster[44]:
0:[x<-1.43329537] yes=1,no=2,missing=1,gain=0.79935962,cover=479.141235
	1:[1<0.5] yes=3,no=4,missing=3,gain=5.93432522,cover=10.117053
		3:leaf=-0.37233457,cover=3.04401779
		4:leaf=0.0753753409,cover=7.07303476
	2:[x<-1.34924793] yes=5,no=6,missing=5,gain=2.64525366,cover=469.02417
		5:leaf=0.147621125,cover=9.77440929
		6:leaf=-0.00275658094,cover=459.249756
booster[45]:
0:[y<1.03026998] yes=1,no=2,missing=1,gain=0.865215659,cover=479.005188
	1:[0<0.5] yes=3,no=4,missing=3,gain=53.4345627,cover=259.880615
		3:leaf=0.0341920182,cover=233.032837
		4:leaf=-0.405407906,cover=26.8477707
	2:[3<0.5] yes=5,no=6,missing=5,gain=50.0376816,cover=219.124573
		5:leaf=0.0614685826,cover=197.153595
		6:leaf=-0.406272799,cover=21.9709644
booster[46]:
0:[x<0.592973471] yes=1,no=2,missing=1,gain=0.710063696,cover=466.180756
	1:[y<-1.40925503] yes=3,no=4,missing=3,gain=8.68618011,cover=266.011719
		3:leaf=-0.113624282,cover=43.125885
		4:leaf=0.0320123322,cover=222.885849
	2:[1<0.5] yes=5,no=6,missing=5,gain=30.4613628,cover=200.169022
		5:leaf=0.0143915871,cover=188.703598
		6:leaf=-0.469759703,cover=11.465414
booster[47]:
0:[y<1.3945024] yes=1,no=2,missing=1,gain=1.16897559,cover=462.729309
	1:[0<0.5] yes=3,no=4,missing=3,gain=7.37529039,cover=328.661255
		3:leaf=0.0268630851,cover=277.646698
		4:leaf=-0.0962010697,cover=51.0145607
	2:[3<0.5] yes=5,no=6,missing=5,gain=16.3498802,cover=134.068085
		5:leaf=0.00699010678,cover=123.025009
		6:leaf=-0.359219313,cover=11.0430689
booster[48]:
0:[x<-0.753519297] yes=1,no=2,missing=1,gain=0.680713713,cover=458.743469
	1:[3<0.5] yes=3,no=4,missing=3,gain=11.5360136,cover=186.89595
		3:leaf=0.00243491284,cover=177.107819
		4:leaf=-0.317085385,cover=9.78812981
	2:[x<0.29287678] yes=5,no=6,missing=5,gain=4.12849522,cover=271.847534
		5:leaf=0.0822353214,cover=52.5756607
		6:leaf=-0.0106274448,cover=219.271866
booster[49]:
0:[3<0.5] yes=1,no=2,missing=1,gain=0.934938073,cover=456.535583
	1:[y<-0.427408934] yes=3,no=4,missing=3,gain=12.7446537,cover=349.643066
		3:leaf=-0.0855759904,cover=125.252808
		4:leaf=0.0334836356,cover=224.390244
	2:[y<-0.341254354] yes=5,no=6,missing=5,gain=37.08992,cover=106.892532
		5:leaf=0.102480114,cover=89.0711136
		6:leaf=-0.36060667,cover=17.8214188
